{
  "svm": "svm_type c_svc\nkernel_type rbf\ngamma 0.2\nnr_class 2\ntotal_sv 2195\nrho 0.5773\nlabel 0 1\nnr_sv 1077 1118\nSV\n1 1:1.3135919 2:-0.28334784 3:-0.31147199 4:-1.264017 5:0.12569561 \n1 1:1.1355084 2:0.1898494 3:-0.17020836 4:-1.1588785 5:-0.32256492 \n1 1:1.5310132 2:0.59728777 3:-0.092523491 4:-1.39129 5:-1.6855192 \n1 1:0.74319311 2:0.80511689 3:0.11900073 4:-0.88773167 5:2.8213163 \n1 1:1.2046154 2:0.92697073 3:0.35414764 4:-1.1976137 5:0.73751065 \n1 1:1.3651564 2:0.073771674 3:-0.20422502 4:-1.2972187 5:-0.42554369 \n1 1:1.5033704 2:0.028340296 3:-0.20112033 4:-1.3746892 5:0.21050165 \n1 1:1.0834123 2:-0.17015817 3:-0.30667996 4:-1.1201432 5:-0.59515578 \n1 1:1.1668724 2:-0.018535111 3:-0.20739721 4:-1.1754793 5:-0.51034973 \n1 1:0.82186881 2:0.23006006 3:-0.36195703 4:-0.94306775 5:-0.64967395 \n1 1:0.96327242 2:0.52775221 3:0.066423399 4:-1.0426727 5:-0.64967395 \n1 1:1.3348556 2:0.86221158 3:0.053937125 4:-1.2806179 5:-1.9035919 \n1 1:1.4028994 2:-0.29512223 3:-0.31633151 4:-1.3193531 5:0.15598348 \n0.1043871182845433 1:1.3337924 2:-0.32600224 3:-0.34839086 4:-1.2806179 5:0.0045441148 \n1 1:1.2944546 2:-0.21736681 3:-0.30769236 4:-1.2529498 5:0.64058946 \n1 1:0.85908028 2:0.3258103 3:-0.13139967 4:-0.97073579 5:-0.049974057 \n1 1:1.2040838 2:0.12420161 3:-0.17790261 4:-1.1976137 5:0.28925013 \n1 1:1.4108733 2:-0.071519872 3:-0.23020997 4:-1.3248867 5:0.028774414 \n1 1:1.1971731 2:-0.15638435 3:-0.27860272 4:-1.1976137 5:-0.30439219 \n1 1:0.74531948 2:-0.16593716 3:-0.35385782 4:-0.88773167 5:0.40434404 \n1 1:0.96699357 2:-0.056079868 3:-0.34521867 4:-1.0426727 5:-0.92226481 \n1 1:1.121687 2:-0.33522181 3:-0.34845835 4:-1.1478113 5:0.022716839 \n1 1:1.1668724 2:-0.24102668 3:-0.27117844 4:-1.1754793 5:0.15598348 \n1 1:0.91702387 2:-0.18482062 3:-0.23871413 4:-1.0094711 5:0.78597125 \n1 1:0.65601194 2:0.074771386 3:-0.39374641 4:-0.82132836 5:0.24078953 \n1 1:0.71767667 2:0.62627943 3:0.029504525 4:-0.86559723 5:1.5795135 \n1 1:1.3805726 2:0.016232667 3:-0.019968117 4:-1.3082859 5:0.47703494 \n1 1:1.0945758 2:-0.049304039 3:-0.22460802 4:-1.1312104 5:-0.93437996 \n1 1:0.92606094 2:0.017676696 3:-0.20523742 4:-1.0150047 5:0.095407735 \n1 1:1.210463 2:-0.1636045 3:-0.32888528 4:-1.2031474 5:-0.2801619 \n1 1:0.75382496 2:0.016788063 3:-0.25970457 4:-0.89326527 5:0.64058946 \n1 1:0.67780723 2:0.078659157 3:-0.20044539 4:-0.83792919 5:-0.049974057 \n1 1:0.84419569 2:-0.17804479 3:-0.33252992 4:-0.95966858 5:0.85866215 \n1 1:0.83037429 2:-0.15671759 3:-0.39462382 4:-0.94860136 5:-0.35285279 \n0.512411125680711 1:0.56138846 2:0.12664536 3:-0.48256768 4:-0.74385784 5:0.16809863 \n1 1:0.50131851 2:0.0039028799 3:-0.34974073 4:-0.69405536 5:-0.85563149 \n1 1:1.0547063 2:-0.18682004 3:-0.32092106 4:-1.1035424 5:-0.20141342 \n1 1:1.1131815 2:0.73724752 3:0.23414443 4:-1.1422777 5:1.1797136 \n1 1:1.1557089 2:0.80911574 3:0.29988297 4:-1.1699457 5:-0.29833462 \n1 1:1.2195 2:-0.16482637 3:-0.28143744 4:-1.208681 5:-0.38314067 \n1 1:1.0153685 2:-0.1001783 3:-0.2258229 4:-1.0758744 5:-0.29833462 \n1 1:0.68418634 2:-0.5452725 3:-0.51563944 4:-0.8434628 5:0.095407735 \n1 1:0.55288298 2:-0.57270906 3:-0.5618049 4:-0.73832423 5:-0.12872253 \n1 1:0.19831076 2:-0.53094329 3:-0.60803786 4:-0.42844215 5:0.11963803 \n1 1:0.032985484 2:-0.69434074 3:-0.69294452 4:-0.2679675 5:-0.11660738 \n1 1:1.0084578 2:-0.47062731 3:-0.41655917 4:-1.0703407 5:0.21655923 \n1 1:1.0414165 2:-0.33533289 3:-0.30755737 4:-1.0924752 5:-0.1105498 \n1 1:0.83569021 2:-0.3469962 3:-0.41757157 4:-0.95413497 5:0.45280464 \n1 1:0.97018312 2:-0.31089547 3:-0.32470069 4:-1.0482063 5:-0.16506798 \n1 1:0.96327242 2:-0.4498555 3:-0.4325551 4:-1.0426727 5:0.25896225 \n1 1:0.89576017 2:-0.093402467 3:-0.3184913 4:-0.99840384 5:0.095407735 \n1 1:0.90267087 2:-0.40386873 3:-0.42344349 4:-0.99840384 5:0.62847431 \n1 1:0.90851839 2:-0.47773637 3:-0.45381551 4:-1.0039374 5:0.28925013 \n1 1:0.86226984 2:-0.42886154 3:-0.45827007 4:-0.97073579 5:0.44674707 \n1 1:0.90267087 2:-0.33055648 3:-0.35014569 4:-0.99840384 5:0.16204106 \n1 1:0.78199937 2:-0.39098355 3:-0.47264616 4:-0.91539971 5:0.19838651 \n1 1:0.99516797 2:-0.2830146 3:-0.29696091 4:-1.0648071 5:0.89500759 \n1 1:1.0270635 2:-0.29967647 3:-0.29979563 4:-1.0869416 5:0.046947138 \n1 1:0.72458737 2:0.15297112 3:-0.28251733 4:-0.87113084 5:0.68299248 \n1 1:1.0414165 2:0.21561977 3:-0.29682593 4:-1.0924752 5:-1.1887981 \n1 1:0.84419569 2:-0.44696744 3:-0.43613224 4:-0.95966858 5:0.30742285 \n1 1:0.75967248 2:-0.37920915 3:-0.4640745 4:-0.89879888 5:0.16809863 \n1 1:0.6017895 2:-0.54249553 3:-0.50592039 4:-0.77705949 5:-0.15295283 \n1 1:0.60232109 2:-0.49462041 3:-0.47703323 4:-0.77705949 5:-0.056031632 \n1 1:0.72458737 2:-0.3864293 3:-0.39725606 4:-0.87113084 5:0.24078953 \n1 1:0.83569021 2:-0.31533864 3:-0.37167607 4:-0.95413497 5:-0.62544365 \n1 1:0.69481819 2:-0.41653175 3:-0.46157725 4:-0.84899641 5:0.077235011 \n1 1:0.80060511 2:-0.4498555 3:-0.42776307 4:-0.92646693 5:-0.0015134599 \n1 1:0.72671374 2:-0.50483969 3:-0.49647132 4:-0.87113084 5:0.11358046 \n1 1:0.59966313 2:-0.5463833 3:-0.52873315 4:-0.77705949 5:0.028774414 \n1 1:0.92978209 2:-0.32200339 3:-0.36708653 4:-1.0205383 5:-0.47400429 \n1 1:0.96380401 2:-0.15160795 3:-0.28508208 4:-1.0426727 5:0.083292586 \n1 1:0.91649228 2:-0.44419047 3:-0.43849451 4:-1.0094711 5:-0.09237708 \n1 1:0.56883076 2:-0.47340429 3:-0.5078777 4:-0.74939145 5:-0.14083768 \n1 1:0.6299639 2:-0.55249265 3:-0.54715884 4:-0.79919393 5:0.48309252 \n1 1:1.1280661 2:-0.15838378 3:-0.3042502 4:-1.1533449 5:-0.043916483 \n1 1:0.96858835 2:-0.42530701 3:-0.41561426 4:-1.0482063 5:0.065119862 \n1 1:0.79901033 2:-0.2670192 3:-0.41142967 4:-0.92646693 5:-0.32256492 \n1 1:0.89788654 2:-0.15427385 3:-0.28724187 4:-0.99840384 5:0.19838651 \n1 1:0.78040459 2:-0.4637404 3:-0.47507592 4:-0.91539971 5:0.47097737 \n0.1579462727826697 1:0.81336333 2:-0.34044253 3:-0.42378096 4:-0.93753414 5:-0.64967395 \n1 1:0.93031368 2:-0.14827557 3:-0.31410423 4:-1.0205383 5:-0.35891037 \n1 1:1.0137737 2:-0.23480624 3:-0.31498164 4:-1.0758744 5:0.74356823 \n1 1:0.62571116 2:-0.49884141 3:-0.53406513 4:-0.79366032 5:0.14386833 \n1 1:0.7867837 2:-0.36421347 3:-0.44693118 4:-0.91539971 5:-0.1832407 \n1 1:0.85748551 2:-0.21781113 3:-0.36472426 4:-0.97073579 5:0.94346819 \n1 1:0.86599099 2:-0.13827845 3:-0.37214853 4:-0.9762694 5:0.30742285 \n1 1:0.46570181 2:-0.52361207 3:-0.57975814 4:-0.66638732 5:0.089350161 \n1 1:1.2476744 2:-0.11528506 3:-0.3031703 4:-1.2252818 5:0.24078953 \n1 1:0.63581142 2:-0.050636989 3:-0.43680718 4:-0.80472754 5:-0.89197694 \n1 1:1.0010155 2:-0.23891617 3:-0.35642257 4:-1.0703407 5:-0.17112555 \n1 1:0.92659254 2:-0.12916996 3:-0.37781797 4:-1.0150047 5:-0.207471 \n1 1:0.85961188 2:-0.056524185 3:-0.30755737 4:-0.97073579 5:0.94952577 \n1 1:0.83728499 2:-0.072519585 3:-0.38261 4:-0.95413497 5:-0.67390425 \n1 1:1.2274739 2:0.090766786 3:-0.29176392 4:-1.2142146 5:-0.46188914 \n1 1:0.62890072 2:-0.037973965 3:-0.37147359 4:-0.79919393 5:0.12569561 \n1 1:0.76020407 2:-0.19159645 3:-0.357165 4:-0.89879888 5:1.0525045 \n0.6918793833685997 1:0.72618215 2:0.38890326 3:-0.30121299 4:-0.87113084 5:1.4038439 \n1 1:1.2535219 2:0.18062983 3:-0.27192087 4:-1.2308154 5:-0.58304063 \n1 1:1.2864807 2:-0.20859156 3:-0.25875966 4:-1.2474162 5:0.12569561 \n1 1:1.0297215 2:0.42944716 3:-0.23810669 4:-1.0869416 5:-1.2009132 \n1 1:1.0143053 2:0.67048894 3:-0.081184604 4:-1.0758744 5:0.22867438 \n1 1:1.7138811 2:-0.040973102 3:0.033959087 4:-1.490895 5:0.76779853 \n1 1:1.0313163 2:0.30937058 3:-0.30654497 4:-1.0869416 5:-0.18929828 \n1 1:1.4576535 2:-0.25291215 3:-0.24377614 4:-1.3470212 5:0.51338039 \n1 1:-0.12861865 2:-0.74865845 3:-0.63591262 4:-0.096425637 5:-0.0015134599 \n1 1:0.39340522 2:0.44288773 3:0.30211025 4:-0.60551763 5:-1.7642677 \n1 1:0.48696551 2:0.68892808 3:0.52335352 4:-0.68298815 5:-0.049974057 \n1 1:-0.2960703 2:-0.73877241 3:-0.71116773 4:0.097250663 5:-0.09237708 \n1 1:0.46251225 2:0.78245674 3:0.6284407 4:-0.66638732 5:0.053004712 \n1 1:0.38649452 2:0.83310884 3:0.62702334 4:-0.59998402 5:0.98587122 \n1 1:0.49600258 2:0.70814478 3:0.63674239 4:-0.69405536 5:0.95558334 \n1 1:0.40563185 2:0.75324292 3:0.63505505 4:-0.61658484 5:1.2887499 \n1 1:0.55660413 2:0.54552488 3:0.017423211 4:-0.73832423 5:0.14992591 \n1 1:0.65282238 2:0.64971714 3:0.56702173 4:-0.81579475 5:0.61030158 \n1 1:-0.51880757 2:-0.8507402 3:-0.79607439 4:0.38499831 5:0.016659264 \n1 1:-0.36358255 2:-0.84840754 3:-0.77616385 4:0.18025479 5:-0.031801333 \n1 1:-0.62246811 2:-0.85673848 3:-0.8011364 4:0.52887213 5:0.25896225 \n1 1:-0.7016754 2:-0.88950683 3:-0.81679486 4:0.64507791 5:0.053004712 \n1 1:-0.62246811 2:-0.88373072 3:-0.81416262 4:0.52887213 5:0.077235011 \n1 1:2.1008804 2:-0.37465491 3:-0.29318128 4:-1.6790377 5:-0.0075710346 \n1 1:2.2486632 2:0.12831154 3:-0.14361597 4:-1.7399074 5:0.25896225 \n1 1:2.4708689 2:0.21473113 3:-0.071870519 4:-1.8339787 5:-0.049974057 \n1 1:2.3836877 2:0.25627474 3:-0.089418796 4:-1.8007771 5:0.2226168 \n1 1:2.1694559 2:0.43522327 3:0.011821261 4:-1.7067057 5:-1.0010133 \n0.97855770695088 1:2.3039488 2:0.12753399 3:-0.14246859 4:-1.7675754 5:-0.85563149 \n1 1:2.3443498 2:-0.37998671 3:-0.26976108 4:-1.7841763 5:0.16809863 \n1 1:2.2927854 2:0.32692109 3:-0.080509671 4:-1.7620418 5:-0.73448 \n0.5863030521274005 1:1.6011835 2:0.40578729 3:-0.33705197 4:-1.4300253 5:-2.1519525 \n1 1:2.5569868 2:-0.33177835 3:-0.19909552 4:-1.872714 5:0.016659264 \n1 1:2.087059 2:0.38934758 3:-0.15589977 4:-1.6679705 5:-0.37102552 \n1 1:2.3427551 2:-0.29745489 3:-0.26280927 4:-1.7841763 5:-0.22564372 \n1 1:2.4660845 2:-0.22947444 3:-0.17101828 4:-1.8339787 5:-0.31044977 \n1 1:2.3214914 2:-0.23458408 3:-0.17648524 4:-1.773109 5:0.43463192 \n0.5995592616599279 1:2.3284021 2:-0.31600511 3:-0.25511502 4:-1.7786426 5:0.2710774 \n1 1:2.4294046 2:-0.32378065 3:-0.25396763 4:-1.8173779 5:-0.056031632 \n1 1:1.9472502 2:0.86832093 3:-0.10231003 4:-1.6071008 5:-1.5583102 \n0.8191685369634769 1:2.1396867 2:0.88376093 3:-0.22352812 4:-1.6956385 5:3.1726557 \n1 1:2.5107383 2:-0.12617082 3:-0.14253608 4:-1.8505796 5:0.42251677 \n1 1:-0.17646198 2:-0.5005076 3:-0.61148002 4:-0.041089552 5:0.75568338 \n1 1:-0.34657159 2:-0.55027107 3:-0.64151457 4:0.15812036 5:0.78597125 \n1 1:-0.36145618 2:-0.66823714 3:-0.68113318 4:0.18025479 5:0.20444408 \n1 1:-0.34231885 2:-0.64857613 3:-0.69712911 4:0.15812036 5:-0.44371641 \n1 1:-0.60705193 2:-0.60270043 3:-0.6829555 4:0.5067377 5:-0.53458003 \n1 1:-0.13446616 2:-0.52894387 3:-0.70887296 4:-0.08535842 5:-0.21958615 \n1 1:-0.3098917 2:-0.6332472 3:-0.66844443 4:0.11385149 5:-0.062089207 \n1 1:-0.34391362 2:-0.59814619 3:-0.66621715 4:0.15812036 5:0.8707773 \n1 1:-0.52146553 2:-0.61358619 3:-0.70003133 4:0.38499831 5:0.71328035 \n1 1:-0.96640848 2:-0.60958734 3:-0.71177517 4:1.0766994 5:-0.43765884 \n1 1:-0.96906645 2:-0.69756204 3:-0.71305755 4:1.082233 5:0.2226168 \n1 1:-0.86221635 2:-0.61936231 3:-0.70259607 4:0.89962391 5:-0.21352857 \n1 1:-0.87019023 2:-0.68678736 3:-0.77035942 4:0.91069113 5:-0.21352857 \n1 1:-0.82659965 2:-0.69556261 3:-0.6717516 4:0.83875421 5:-0.207471 \n1 1:-0.36996166 2:0.28404453 3:0.09909019 4:0.19132201 5:0.84048942 \n1 1:-0.54698197 2:0.18751674 3:0.02079788 4:0.42373357 5:2.1307528 \n1 1:-0.68679081 2:0.038670658 3:0.055421979 4:0.62294348 5:-1.0737042 \n1 1:-0.51880757 2:0.41989435 3:0.32667784 4:0.38499831 5:-2.2307009 \n1 1:-0.34816636 2:0.1631904 3:0.22894744 4:0.16365397 5:1.3372105 \n1 1:-0.55761382 2:0.26938208 3:0.11555857 4:0.4403344 5:1.2887499 \n1 1:-0.57037204 2:0.81078192 3:0.53543484 4:0.45693522 5:1.4462469 \n1 1:-0.53475534 2:0.58151453 3:0.58241022 4:0.40713274 5:-0.29227705 \n1 1:-0.68360125 2:-0.1449432 3:-0.18026487 4:0.61740987 5:-0.24987402 \n1 1:-0.6947647 2:0.17452048 3:0.096322962 4:0.6340107 5:-1.788498 \n1 1:-0.44491621 2:0.7586858 3:0.46591666 4:0.28539336 5:-2.7940554 \n1 1:-0.53581853 2:1.0076142 3:0.60461554 4:0.40713274 5:-1.7279222 \n1 1:-0.68519603 2:0.81167056 3:0.7159796 4:0.62294348 5:-2.6547312 \n1 1:-0.40451517 2:0.52553063 3:0.37777032 4:0.23559088 5:-0.98889814 \n1 1:-0.50285979 2:0.58529122 3:0.35711735 4:0.36286388 5:0.97375607 \n1 1:-0.61821537 2:1.0180556 3:0.57984547 4:0.52333852 5:-0.1347801 \n1 1:-0.4523585 2:0.70547888 3:0.17151058 4:0.29646057 5:2.8818921 \n1 1:-0.50658094 2:0.39256887 3:0.36933365 4:0.36839748 5:0.18627136 \n1 1:-0.37687236 2:0.54652459 3:0.39815332 4:0.19685562 5:-2.3276221 \n1 1:-0.55601905 2:0.33280828 3:0.16401881 4:0.43480079 5:0.37405617 \n1 1:-0.56186656 2:1.0012827 3:0.96401774 4:0.4403344 5:0.45280464 \n1 1:-0.50339138 2:0.87154223 3:0.6315454 4:0.36286388 5:-0.35891037 \n1 1:-0.67190622 2:0.14141888 3:-0.094885759 4:0.60080904 5:-0.80111332 \n1 1:-0.75058191 2:-0.01198144 3:-0.038393807 4:0.72254843 5:0.63453188 \n1 1:-0.54751356 2:0.76368436 3:0.72914081 4:0.42373357 5:1.0282742 \n1 1:-0.19772568 2:0.82999862 3:0.90631091 4:-0.013421509 5:1.2402894 \n1 1:-0.46139557 2:1.1183601 3:1.1164853 4:0.30752779 5:2.7486255 \n1 1:-0.38537784 2:1.2990859 3:1.1861384 4:0.20792283 5:1.4644196 \n1 1:-0.48319087 2:0.39634556 3:0.031731806 4:0.33519583 5:-1.261489 \n1 1:-0.052069322 2:0.16985515 3:-0.22292068 4:-0.17942977 5:-0.10449223 \n1 1:-0.53156579 2:0.23605833 3:-0.10824945 4:0.40159914 5:1.0161591 \n1 1:-0.88135368 2:0.10698434 3:0.10475963 4:0.93282556 5:-0.99495571 \n1 1:-0.64320022 2:0.10920593 3:-0.05587459 4:0.55654018 5:-1.9702252 \n1 1:-0.53316057 2:0.56740748 3:0.43972924 4:0.40159914 5:-1.9823404 \n1 1:-0.61768378 2:0.83677445 3:0.74459679 4:0.52333852 5:0.41040162 \n1 1:-0.26311156 2:0.91952842 3:0.77645366 4:0.058515403 5:3.0939072 \n1 1:-0.092470354 2:0.4627709 3:0.27383053 4:-0.1351609 5:0.13175318 \n1 1:-0.47096424 2:0.21573084 3:-0.089891249 4:0.31859501 5:1.2948075 \n1 1:-0.41248906 2:0.80522797 3:0.42818787 4:0.24112449 5:-2.2973343 \n1 1:-0.25088493 2:0.74291255 3:0.60171333 4:0.047448186 5:-0.80717089 \n1 1:-0.52731305 2:0.88975921 3:0.42164101 4:0.39606553 5:0.3437683 \n1 1:-0.64320022 2:0.94840901 3:0.79690416 4:0.55654018 5:-1.0434163 \n1 1:-0.11586043 2:1.5930014 3:1.0604658 4:-0.10749285 5:-3.2847189 \n1 1:-0.45501646 2:0.40889751 3:0.26640626 4:0.29646057 5:-0.87380422 \n1 1:-0.37208803 2:0.64860634 3:0.28213221 4:0.19132201 5:-0.96466784 \n1 1:-0.49010157 2:0.46454817 3:0.33599192 4:0.34626305 5:0.18021378 \n1 1:-0.55017153 2:0.53497236 3:0.41401426 4:0.42926718 5:-1.0373587 \n1 1:-0.27799615 2:0.48454242 3:0.27227818 4:0.075116229 5:-1.0252436 \n1 1:-0.76280854 2:0.35824541 3:0.43797441 4:0.73914926 5:0.63453188 \n1 1:-0.81277824 2:0.45699479 3:0.17893485 4:0.81661978 5:-1.261489 \n1 1:-1.0573108 2:0.27282553 3:0.012631182 4:1.2427076 5:-0.91620724 \n1 1:-1.2029672 2:0.82655516 3:0.53772961 4:1.5304553 5:4.5840706 \n1 1:-0.54007127 2:1.323079 3:1.1615708 4:0.41266635 5:0.83443185 \n1 1:-0.56877727 2:0.8535474 3:0.60650536 4:0.45140161 5:-2.6305009 \n1 1:-0.68679081 2:0.38768139 3:0.33032248 4:0.62294348 5:-1.0918769 \n1 1:-0.49010157 2:0.41023046 3:0.59550394 4:0.34626305 5:1.6946075 \n1 1:-0.54166605 2:0.27271446 3:0.43439726 4:0.41266635 5:0.35588345 \n1 1:-0.61927856 2:0.058553828 3:0.27909501 4:0.52333852 5:-0.32862249 \n1 1:-0.60758352 2:0.22517257 3:0.23677667 4:0.5067377 5:-0.90409209 \n1 1:-0.71815477 2:0.402566 3:0.25769961 4:0.67274596 5:-2.0429161 \n1 1:-0.74207643 2:0.12775615 3:-0.038528794 4:0.70594761 5:-0.91014966 \n1 1:-0.29660189 2:0.07688189 3:0.042463252 4:0.097250663 5:0.58607129 \n1 1:-0.59535689 2:0.32892051 3:0.1804872 4:0.49013687 5:-0.55881033 \n1 1:-0.8728482 2:0.077659444 3:0.084039169 4:0.91622473 5:1.2342318 \n1 1:-0.83457353 2:0.0040139591 3:-0.086854048 4:0.85535504 5:-0.46188914 \n1 1:-0.59057256 2:0.080658582 3:-0.15913945 4:0.48460326 5:0.97375607 \n1 1:-0.58366186 2:0.87298626 3:0.79784906 4:0.47353605 5:2.4396891 \n1 1:-0.72931821 2:0.79500868 3:0.93330826 4:0.68934678 5:0.90712274 \n1 1:-0.71921795 2:0.29681863 3:0.36501407 4:0.67274596 5:0.94346819 \n1 1:-0.53528694 2:0.58506906 3:0.12251039 4:0.40713274 5:0.54366826 \n1 1:-0.39919925 2:0.70636751 3:0.30683479 4:0.22452366 5:1.1433682 \n1 1:-0.68785399 2:0.44833061 3:0.20262502 4:0.62294348 5:1.700665 \n1 1:-0.67509577 2:0.20751099 3:0.1580794 4:0.60634265 5:-0.35891037 \n1 1:-1.2481525 2:-0.18348767 3:-0.29540856 4:1.6245266 5:-0.43160126 \n1 1:-1.0333891 2:0.3999001 3:0.29117633 4:1.1984388 5:-1.4795617 \n1 1:-1.213599 2:-0.017202161 3:-0.09670808 4:1.5525897 5:0.52549554 \n1 1:-1.2928063 2:-0.064632964 3:-0.17128826 4:1.7241316 5:1.373556 \n1 1:-1.2901483 2:-0.31544972 3:-0.39016926 4:1.718598 5:0.30136527 \n1 1:-1.285364 2:-0.18304335 3:-0.34130406 4:1.7075308 5:-0.53458003 \n1 1:-1.5718924 2:-0.52094617 3:-0.61627205 4:2.4047654 5:-1.1221648 \n1 1:-1.5575394 2:-0.60036777 3:-0.65089615 4:2.3660302 5:0.54972584 \n1 1:-1.4347415 2:-0.49661983 3:-0.51320967 4:2.0506145 5:-1.4553314 \n1 1:-1.4033775 2:-0.28223705 3:-0.30087553 4:1.9786776 5:0.38617132 \n1 1:-1.2034988 2:-0.16271587 3:-0.23540696 4:1.5304553 5:-0.013628609 \n1 1:-1.2045619 2:-0.094846496 3:-0.23473202 4:1.5359889 5:-1.261489 \n1 1:-1.3794559 2:-0.034752669 3:-0.087259008 4:1.9178079 5:0.43463192 \n1 1:-1.388493 2:0.13253255 3:0.062103823 4:1.9399423 5:-1.7642677 \n1 1:-1.6468469 2:-0.14005572 3:-0.21914106 4:2.6150426 5:0.47703494 \n1 1:-1.6207989 2:-0.60592173 3:-0.64745399 4:2.5431057 5:0.3437683 \n1 1:-1.4055039 2:0.15174925 3:-0.15913945 4:1.9842112 5:2.100465 \n1 1:-1.5224543 2:0.17496479 3:-0.20186275 4:2.2719588 5:2.0641195 \n1 1:-1.5447812 2:0.34591562 3:0.25284009 4:2.3328285 5:-2.4608888 \n1 1:-1.7749607 2:-0.8566274 3:-0.78871762 4:3.0023952 5:0.55578341 \n1 1:-0.51987075 2:1.2297725 3:1.0262466 4:0.38499831 5:2.2943073 \n1 1:-0.83191557 2:0.72058564 3:0.58072289 4:0.84982143 5:0.11358046 \n1 1:-1.184893 2:0.18151846 3:-0.0017449063 4:1.49172 5:0.35588345 \n1 1:-0.93929726 2:0.5886236 3:0.44033668 4:1.0324305 5:0.2468471 \n1 1:-0.62459448 2:0.26338381 3:0.023497615 4:0.53440574 5:0.65876218 \n1 1:-0.44810576 2:0.24605546 3:0.33012 4:0.29092696 5:-0.44977399 \n1 1:-0.74579758 2:0.41400715 3:0.40193295 4:0.71148122 5:0.60424401 \n1 1:-0.83457353 2:0.13008881 3:0.094095681 4:0.85535504 5:-0.2317013 \n1 1:-0.37580918 2:0.51708862 3:0.19857542 4:0.19685562 5:-1.6794617 \n1 1:-0.38590943 2:0.65171656 3:0.29117633 4:0.20792283 5:-0.67390425 \n1 1:-0.47521698 2:0.86587719 3:0.46564669 4:0.32412862 5:-2.9152069 \n1 1:-0.50179661 2:1.1124729 3:0.51154218 4:0.36286388 5:0.046947138 \n1 1:-0.89889623 2:0.67204405 3:0.45410532 4:0.9604936 5:-2.6668463 \n1 1:-0.8016148 2:0.24361171 3:0.022890174 4:0.80001895 5:-1.8430162 \n1 1:-0.75589784 2:0.097764773 3:0.15767444 4:0.72808204 5:-0.64967395 \n1 1:-0.89995942 2:0.18207386 3:0.16624609 4:0.9604936 5:0.24078953 \n1 1:-0.61981015 2:0.31336943 3:0.1010475 4:0.52333852 5:-1.6915768 \n1 1:-0.41939976 2:0.13830867 3:-0.033939244 4:0.2521917 5:0.60424401 \n1 1:-0.5804723 2:0.051777999 3:-0.085436687 4:0.46800244 5:1.4401893 \n1 1:-0.53581853 2:0.1338655 3:0.043205679 4:0.40713274 5:-0.80717089 \n1 1:-0.70645973 2:0.40889751 3:0.42899779 4:0.65061152 5:-1.8490737 \n1 1:-1.0706006 2:0.14197428 3:0.063588677 4:1.2703757 5:0.44674707 \n1 1:-1.0769797 2:0.33991735 3:0.2934711 4:1.2814429 5:2.2397892 \n1 1:-0.53741331 2:0.87409705 3:0.44303641 4:0.40713274 5:-1.4856193 \n1 1:-0.47946972 2:0.79534192 3:0.53847204 4:0.32966222 5:-2.2307009 \n1 1:-0.70380177 2:0.70525672 3:0.48413987 4:0.65061152 5:-1.7703253 \n1 1:-0.55867701 2:0.58917899 3:0.23637171 4:0.4403344 5:-0.94043754 \n1 1:-0.36039299 2:0.5273079 3:0.25513486 4:0.18025479 5:0.13781076 \n1 1:-0.42205773 2:0.64127512 3:0.54940596 4:0.25772531 5:-0.80717089 \n1 1:-0.51508642 2:0.28082323 3:0.091800906 4:0.3794647 5:-0.12872253 \n1 1:-0.58206708 2:0.29237547 3:0.37885021 4:0.47353605 5:-0.47400429 \n1 1:-1.0099991 2:0.35002555 3:0.14019365 4:1.1541699 5:-1.2917769 \n1 1:-1.5341493 2:-0.33711015 3:-0.63132307 4:2.3051605 5:0.57395614 \n1 1:-1.5702976 2:-0.54060718 3:-0.71744462 4:2.3992318 5:0.47097737 \n1 1:-1.54106 2:-0.45563162 3:-0.62410128 4:2.3217613 5:-1.6431162 \n1 1:-1.7207383 2:-0.89306137 3:-0.88165599 4:2.8308533 5:-0.6133285 \n1 1:-1.7382808 2:-0.92338598 3:-0.91223049 4:2.8861894 5:-0.37102552 \n1 1:-1.7143592 2:-0.94204728 3:-0.91756246 4:2.8142525 5:0.38011375 \n1 1:-1.742002 2:-0.94493533 3:-0.88860781 4:2.8972566 5:0.25896225 \n1 1:-1.8004772 2:-0.92627404 3:-0.88820285 4:3.0853993 5:-0.48611944 \n1 1:-1.7914401 2:-0.89694914 3:-0.89650453 4:3.0577313 5:-0.22564372 \n1 1:-1.4958746 2:-0.08773743 3:-0.61309986 4:2.2055555 5:2.1913286 \n1 1:-0.58100389 2:0.47265695 3:0.2221981 4:0.46800244 5:-1.2736041 \n1 1:-0.6517057 2:0.14686176 3:0.2364392 4:0.573141 5:0.50732281 \n1 1:-0.32796585 2:0.51486703 3:0.46706405 4:0.13598592 5:-1.0918769 \n1 1:-0.67881692 2:0.70359053 3:0.33329219 4:0.61187626 5:1.1433682 \n1 1:-0.74207643 2:0.60228633 3:0.22402042 4:0.70594761 5:4.4750342 \n1 1:-0.78300906 2:0.43089118 3:0.13573909 4:0.77235091 5:1.1675985 \n1 1:-0.66977985 2:0.69581499 3:0.1906112 4:0.59527544 5:1.5492257 \n1 1:-0.28650163 2:0.46743623 3:0.34118891 4:0.086183446 5:0.97375607 \n1 1:-0.43587913 2:0.56274215 3:0.3972759 4:0.27432614 5:-2.0550313 \n1 1:-0.60811511 2:0.44721982 3:0.43527467 4:0.5067377 5:-1.0737042 \n1 1:-0.57090364 2:0.49687221 3:0.64936365 4:0.45693522 5:-0.89803451 \n1 1:-0.39228854 2:0.46565896 3:0.51667168 4:0.21899005 5:1.0706773 \n1 1:-0.33806611 2:0.47310127 3:0.5561553 4:0.15258675 5:1.6643196 \n1 1:-0.65967959 2:0.66604577 3:0.55581783 4:0.58420822 5:1.6764347 \n1 1:-0.61927856 2:0.61717094 3:0.39201142 4:0.52333852 5:1.5431681 \n1 1:-0.41195747 2:0.40478758 3:0.075130044 4:0.24112449 5:0.083292586 \n1 1:-0.13340298 2:0.43655622 3:0.39876076 4:-0.090892029 5:1.2766348 \n1 1:-0.29341233 2:0.58706849 3:0.73015321 4:0.097250663 5:-0.76476787 \n1 1:-0.36570892 2:0.3284762 3:0.3199285 4:0.1857884 5:-1.0737042 \n1 1:-0.69848585 2:0.86920956 3:0.48744705 4:0.6395443 5:-0.55275276 \n1 1:-0.83191557 2:0.56485266 3:0.26971343 4:0.84982143 5:-1.4311011 \n1 1:-0.57887752 2:0.28271158 3:0.20249004 4:0.46800244 5:-0.6133285 \n1 1:-0.75536625 2:0.66093613 3:0.34530601 4:0.72808204 5:1.6643196 \n1 1:-0.50498616 2:0.71747543 3:0.2058647 4:0.36286388 5:-1.7824404 \n1 1:-0.43215798 2:0.72858334 3:0.59428906 4:0.26879253 5:-1.6128283 \n1 1:-0.52306031 2:0.63838706 3:0.48204758 4:0.39053192 5:-0.6375588 \n1 1:-0.43587913 2:0.5214207 3:0.51383696 4:0.27432614 5:1.1251954 \n1 1:-0.48319087 2:0.41445147 3:0.24298606 4:0.33519583 5:0.31348042 \n1 1:-0.46245876 2:0.9649598 3:0.80912046 4:0.30752779 5:-1.4189859 \n1 1:-0.72400229 2:0.76701673 3:0.569384 4:0.67827956 5:1.8460468 \n1 1:-0.54751356 2:0.67648721 3:0.350503 4:0.42373357 5:-2.400313 \n1 1:-0.43481595 2:0.56551913 3:0.47523075 4:0.27432614 5:0.028774414 \n1 1:-0.39228854 2:1.4420448 3:1.0105207 4:0.21899005 5:-0.12872253 \n1 1:-0.673501 2:0.33958411 3:0.2211857 4:0.60634265 5:0.68299248 \n1 1:-0.91324923 2:0.52608603 3:0.14464822 4:0.98262804 5:-1.7279222 \n1 1:-1.1832982 2:0.52497524 3:-0.099475308 4:1.49172 5:-1.8975343 \n1 1:-0.99670926 2:0.48976314 3:0.18446931 4:1.1320355 5:2.5063225 \n1 1:-0.88560642 2:0.62827886 3:0.54765114 4:0.93835917 5:1.131253 \n1 1:-0.67190622 2:0.44821953 3:0.11508612 4:0.60080904 5:3.0333315 \n1 1:-1.0004304 2:0.16507875 3:0.03301418 4:1.1375691 5:-1.8369586 \n1 1:-1.4421838 2:0.37957261 3:0.082621808 4:2.0727489 5:-2.7092493 \n1 1:-1.4257044 2:0.66360203 3:0.32033346 4:2.0284801 5:-2.7031918 \n1 1:-1.1375813 2:0.51109034 3:0.26053433 4:1.3976487 5:-0.65573153 \n1 1:-0.52146553 2:1.3284108 3:0.72873585 4:0.38499831 5:2.4578619 \n1 1:-0.86965864 2:1.2223302 3:0.39201142 4:0.91069113 5:-2.6305009 \n1 1:-1.2609107 2:0.6674898 3:0.090923492 4:1.6521947 5:2.2095013 \n1 1:-0.61927856 2:0.31292511 3:0.19493078 4:0.52333852 5:-0.61938608 \n1 1:-0.1817779 2:0.4734345 3:0.47887539 4:-0.035555943 5:0.68299248 \n1 1:-0.28809641 2:0.55041236 3:0.48879692 4:0.091717054 5:-0.80111332 \n1 1:-0.58206708 2:0.36435477 3:0.33983905 4:0.47353605 5:-0.76476787 \n1 1:-1.1088753 2:0.61317209 3:0.19317595 4:1.3423126 5:1.8218165 \n1 1:-1.3475603 2:0.63649872 3:0.44911081 4:1.845871 5:2.469977 \n1 1:-0.46352194 2:1.6279913 3:0.78367546 4:0.3130614 5:-0.2801619 \n1 1:-0.53316057 2:1.3075279 3:0.62378366 4:0.40159914 5:0.18021378 \n1 1:-0.56771408 2:0.49665005 3:0.14694299 4:0.45140161 5:0.046947138 \n1 1:0.036175039 2:0.73591457 3:0.63107294 4:-0.2679675 5:0.81625912 \n1 1:-0.77237721 2:0.67493211 3:0.1193382 4:0.75575008 5:5.589628 \n1 1:-0.93451293 2:0.57884863 3:0.25526985 4:1.0213633 5:1.0525045 \n1 1:-0.67137463 2:0.82511114 3:0.60151085 4:0.60080904 5:1.8763347 \n1 1:-0.62406289 2:-0.91061187 3:-0.81875217 4:0.52887213 5:0.13175318 \n1 1:-0.38165669 2:-0.69311887 3:-0.74707421 4:0.20238923 5:-0.025743759 \n1 1:-0.27161704 2:-0.5884823 3:-0.73276561 4:0.06958262 5:0.17415621 \n1 1:-1.4113514 2:-0.64613238 3:-0.88584058 4:1.9952784 5:-0.17718313 \n1 1:-1.5904981 2:-0.8566274 3:-0.8591807 4:2.4545679 5:0.37405617 \n1 1:-0.69051196 2:-0.8385215 3:-0.80802072 4:0.62847709 5:0.28319255 \n1 1:-0.75377147 2:-0.85618308 3:-0.82273427 4:0.72254843 5:0.38011375 \n1 1:-0.76865606 2:-0.76609788 3:-0.72439643 4:0.75021648 5:0.60424401 \n1 1:-0.71177566 2:-0.75232407 3:-0.68221308 4:0.66167874 5:-0.207471 \n1 1:-0.80905709 2:-0.85462797 3:-0.8235442 4:0.81108617 5:-0.12266495 \n1 1:-0.73888688 2:-0.83607775 3:-0.81207032 4:0.700414 5:-0.17718313 \n1 1:-0.7303814 2:-0.84618596 3:-0.83083348 4:0.68934678 5:0.19838651 \n1 1:-0.8728482 2:-0.82508092 3:-0.85337627 4:0.91622473 5:-0.068146782 \n1 1:-0.90740171 2:-0.82874653 3:-0.81659238 4:0.97709443 5:-0.38314067 \n1 1:-0.89995942 2:-0.82397013 3:-0.78527545 4:0.9604936 5:-0.20141342 \n1 1:-0.87710094 2:-0.85707172 3:-0.80714331 4:0.92729195 5:-0.40131339 \n1 1:-0.97491396 2:-0.83141243 3:-0.85783083 4:1.0933002 5:-0.2801619 \n1 1:-1.1700084 2:-0.86618021 3:-0.84169991 4:1.464052 5:0.44068949 \n1 1:-1.1981828 2:-0.89817101 3:-0.88064359 4:1.5193881 5:0.52549554 \n1 1:-1.2199781 2:-0.9067241 3:-0.86552507 4:1.5691905 5:0.56789856 \n1 1:-1.2194465 2:-0.8779546 3:-0.85897822 4:1.5636569 5:0.49520767 \n1 1:-1.2205097 2:-0.89572727 3:-0.86633499 4:1.5691905 5:-0.15295283 \n1 1:-0.72187592 2:-0.77120752 3:-0.70009882 4:0.67827956 5:-0.2801619 \n1 1:-0.69689107 2:-0.83807718 3:-0.79897661 4:0.6395443 5:-0.20141342 \n1 1:-0.68519603 2:-0.84551948 3:-0.82320673 4:0.62294348 5:0.23473195 \n1 1:-0.6947647 2:-0.80019918 3:-0.7603704 4:0.6340107 5:-0.21352857 \n0.5923031632092017 1:-0.70061222 2:-0.43608169 3:-0.82955111 4:0.64507791 5:-0.58909821 \n1 1:-0.83085239 2:-0.81808293 3:-0.76050539 4:0.84982143 5:0.11358046 \n1 1:-0.82819442 2:-0.79886623 3:-0.76664728 4:0.84428782 5:-0.068146782 \n1 1:-0.74898714 2:-0.81319545 3:-0.78466801 4:0.71701482 5:-0.34679522 \n1 1:-0.9796983 2:-0.79375659 3:-0.7603704 4:1.1043674 5:0.42251677 \n1 1:-0.69795425 2:-0.79964379 3:-0.73479041 4:0.6395443 5:-0.31044977 \n1 1:-0.94036045 2:-0.82585847 3:-0.82273427 4:1.0324305 5:0.27713498 \n1 1:-0.87656934 2:-0.81019631 3:-0.74957146 4:0.92175834 5:0.47703494 \n1 1:-0.87125342 2:-0.75654507 3:-0.72716366 4:0.91622473 5:0.0045441148 \n1 1:-0.92707064 2:-0.74932493 3:-0.75375605 4:1.0102961 5:0.11358046 \n1 1:-0.89517508 2:-0.83341185 3:-0.85270133 4:0.95495999 5:0.14386833 \n1 1:-0.65330048 2:-0.69467398 3:-0.59001713 4:0.573141 5:0.16809863 \n1 1:-0.70380177 2:-0.71211341 3:-0.65771298 4:0.65061152 5:0.21655923 \n1 1:-0.78141428 2:-0.83841042 3:-0.835693 4:0.7668173 5:-0.32256492 \n1 1:-0.82128372 2:-0.83152351 3:-0.81807723 4:0.83322061 5:-0.41342854 \n1 1:-0.81756257 2:-0.83196783 3:-0.83717786 4:0.827687 5:-0.33468007 \n1 1:-0.80320957 2:-0.85240639 3:-0.83312825 4:0.80555256 5:-0.14083768 \n1 1:-0.77716154 2:-0.75943313 3:-0.75854808 4:0.76128369 5:0.48915009 \n1 1:-0.77078243 2:-0.61269756 3:-0.5180017 4:0.75021648 5:0.2468471 \n1 1:-0.77397199 2:-0.8438533 3:-0.76691726 4:0.75575008 5:0.32559557 \n1 1:-0.83085239 2:-0.75176867 3:-0.7685371 4:0.84982143 5:0.62847431 \n1 1:-0.80267798 2:-0.72799773 3:-0.62889331 4:0.80001895 5:0.41645919 \n1 1:-0.80480435 2:-0.71888924 3:-0.65278597 4:0.80555256 5:0.56184099 \n1 1:-0.79576728 2:-0.70267168 3:-0.65089615 4:0.78895174 5:0.25896225 \n1 1:-0.78141428 2:-0.84451977 3:-0.83940514 4:0.7668173 5:0.040889563 \n1 1:-0.7085861 2:-0.83352293 3:-0.82367918 4:0.65614513 5:0.33165315 \n1 1:-0.68785399 2:-0.74988032 3:-0.71481237 4:0.62294348 5:0.63453188 \n1 1:-0.69635947 2:-0.74688119 3:-0.66716205 4:0.6395443 5:0.18021378 \n1 1:-0.71655999 2:-0.82808005 3:-0.82766129 4:0.66721235 5:0.2953077 \n1 1:-0.73835529 2:-0.82241502 3:-0.83204836 4:0.700414 5:-0.0015134599 \n1 1:-0.7091177 2:-0.75099112 3:-0.71852451 4:0.65614513 5:0.21050165 \n1 1:-0.72559706 2:-0.76876378 3:-0.72520635 4:0.68381317 5:0.51338039 \n1 1:-0.74898714 2:-0.82185962 3:-0.78284569 4:0.71701482 5:0.34982587 \n1 1:-0.74845554 2:-0.82741358 3:-0.83103596 4:0.71701482 5:0.18627136 \n1 1:-0.76121376 2:-0.82708034 3:-0.8377853 4:0.73914926 5:0.083292586 \n1 1:-0.71815477 2:-0.80253185 3:-0.759358 4:0.67274596 5:0.49520767 \n1 1:-0.72878662 2:-0.84040984 3:-0.77677129 4:0.68934678 5:0.50126524 \n1 1:-0.85690042 2:-0.79508954 3:-0.73236065 4:0.88855669 5:0.2226168 \n1 1:-0.82819442 2:-0.6940075 3:-0.57854326 4:0.84428782 5:0.10146531 \n1 1:-0.83935787 2:-0.69634017 3:-0.6066205 4:0.86088865 5:0.077235011 \n1 1:-0.8728482 2:-0.76798623 3:-0.71872699 4:0.91622473 5:-0.043916483 \n1 1:-0.8654059 2:-0.78242652 3:-0.81814473 4:0.90515752 5:-0.22564372 \n1 1:-0.95258708 2:-0.78975774 3:-0.82165438 4:1.0545649 5:0.0045441148 \n1 1:-0.6729694 2:-0.83507804 3:-0.80883064 4:0.60080904 5:0.13175318 \n1 1:-0.3524191 2:-0.14383241 3:-0.21266169 4:0.16918757 5:0.016659264 \n1 1:-0.45607965 2:-0.19526206 3:-0.14908294 4:0.30199418 5:0.19232893 \n1 1:-0.5305026 2:-0.34744051 3:-0.30134798 4:0.40159914 5:-0.049974057 \n1 1:-0.5879146 2:-0.29212309 3:-0.32220343 4:0.47906966 5:0.19838651 \n1 1:-0.28012252 2:-0.1817104 3:-0.17398799 4:0.080649837 5:-0.056031632 \n1 1:-0.28969119 2:-0.28268136 3:-0.32375578 4:0.091717054 5:0.57395614 \n1 1:-0.38006192 2:-0.22780826 3:-0.058304351 4:0.20238923 5:0.91923789 \n1 1:-0.53475534 2:-0.13861169 3:-0.036773966 4:0.40713274 5:1.4401893 \n1 1:-0.49169635 2:-0.38454095 3:-0.34164152 4:0.34626305 5:0.38011375 \n1 1:-0.34657159 2:-0.19881659 3:-0.074907721 4:0.15812036 5:-0.22564372 \n1 1:-0.41621021 2:-0.18182148 3:-0.14719312 4:0.24665809 5:-0.28621947 \n1 1:-0.46458513 2:-0.29190093 3:-0.38476979 4:0.3130614 5:-0.74053757 \n1 1:-0.58578823 2:-0.50295134 3:-0.50025095 4:0.47906966 5:-0.53458003 \n1 1:-0.38271988 2:-0.24602524 3:-0.2064523 4:0.20792283 5:0.21050165 \n1 1:-0.39228854 2:-0.29067906 3:-0.29459864 4:0.21899005 5:-0.50429216 \n1 1:-0.36836688 2:-0.3331113 3:-0.3337448 4:0.1857884 5:-0.013628609 \n1 1:-0.36198777 2:-0.29134554 3:-0.28150493 4:0.18025479 5:-0.91620724 \n1 1:-0.24875856 2:-0.16871414 3:-0.16737364 4:0.041914577 5:-0.86168907 \n1 1:-0.302981 2:-0.28179273 3:-0.34062912 4:0.10831788 5:-0.14083768 \n1 1:-0.46830628 2:-0.20414839 3:-0.2665889 4:0.31859501 5:0.41040162 \n1 1:-0.5735616 2:-0.071075555 3:-0.15603475 4:0.45693522 5:2.0156589 \n1 1:-0.53316057 2:0.006013384 3:-0.099002854 4:0.40159914 5:-0.025743759 \n1 1:-0.38431466 2:0.025563317 3:-0.081252098 4:0.20792283 5:-0.98284056 \n1 1:-0.37580918 2:0.2085107 3:0.069325614 4:0.19685562 5:-1.9459949 \n1 1:-0.19772568 2:0.29315302 3:0.054139605 4:-0.013421509 5:0.18021378 \n1 1:-0.40026243 2:-0.28879072 3:-0.3643193 4:0.23005727 5:-0.50429216 \n1 1:-0.302981 2:-0.36165865 3:-0.32490317 4:0.10831788 5:-0.062089207 \n1 1:-0.59057256 2:-0.44230212 3:-0.44976591 4:0.48460326 5:0.44068949 \n1 1:-0.38218829 2:-0.13272449 3:-0.32922274 4:0.20792283 5:-0.82534362 \n1 1:-0.23227919 2:-0.15649543 3:-0.12033076 4:0.025313751 5:-0.34679522 \n1 1:-0.18656223 2:0.16174637 3:-0.071803026 4:-0.030022334 5:-1.2493738 \n1 1:-0.34657159 2:-0.094846496 3:-0.081589565 4:0.15812036 5:-0.69207698 \n1 1:-0.4810645 2:-0.28801316 3:-0.44355651 4:0.33519583 5:2.0035438 \n1 1:-0.44438461 2:-0.58914877 3:-0.55822775 4:0.28539336 5:0.11963803 \n1 1:-0.46617991 2:-0.34655188 3:-0.32267589 4:0.3130614 5:0.19232893 \n1 1:-0.44970054 2:-0.34122008 3:-0.33111256 4:0.29092696 5:0.43463192 \n1 1:-0.58738301 2:-0.52105725 3:-0.51793421 4:0.47906966 5:0.28319255 \n1 1:-0.31042329 2:0.040225766 3:0.014386009 4:0.1193851 5:0.053004712 \n1 1:-0.32158674 2:-0.087848509 3:-0.064918702 4:0.13045231 5:0.58607129 \n1 1:-0.29181756 2:-0.11806204 3:-0.10534723 4:0.091717054 5:-0.080261931 \n1 1:-0.44970054 2:-0.27246208 3:-0.19200872 4:0.29092696 5:0.7980864 \n1 1:-0.4598008 2:-0.17493457 3:-0.15630473 4:0.30752779 5:-0.36496794 \n1 1:-0.42312091 2:-0.025755257 3:0.0072992054 4:0.25772531 5:-0.55881033 \n1 1:-0.50711253 2:-0.17604536 3:-0.357165 4:0.36839748 5:1.8521044 \n1 1:-0.44970054 2:-0.22158782 3:-0.15110774 4:0.29092696 5:0.8223167 \n1 1:-0.50020183 2:-0.21325688 3:-0.29844577 4:0.35733027 5:1.4280742 \n1 1:-0.32371311 2:-0.17404594 3:-0.24991803 4:0.13045231 5:1.5552832 \n1 1:-0.44757417 2:0.036004758 3:-0.148408 4:0.29092696 5:0.10752288 \n1 1:-0.29128596 2:-0.22714178 3:-0.17952245 4:0.091717054 5:-0.42554369 \n1 1:-0.23759512 2:0.17263213 3:0.10543457 4:0.03084736 5:-0.2317013 \n1 1:-0.59907804 2:-0.099845059 3:-0.30877225 4:0.49567048 5:-0.77688302 \n1 1:-0.67031144 2:-0.41997521 3:-0.47696573 4:0.60080904 5:0.065119862 \n1 1:-0.50339138 2:-0.011426045 3:-0.00086749249 4:0.36286388 5:-0.09237708 \n1 1:-0.4380055 2:-0.14683154 3:-0.026379987 4:0.27432614 5:0.61635916 \n1 1:-0.3455084 2:0.040670083 3:-0.026919934 4:0.15812036 5:0.13781076 \n1 1:-0.64957933 2:-0.39242758 3:-0.44254411 4:0.56760739 5:-0.36496794 \n1 1:-0.61077308 2:-0.23047416 3:-0.32166349 4:0.51227131 5:-0.46188914 \n1 1:-0.44651098 2:-0.64902044 3:-0.57651846 4:0.28539336 5:0.071177436 \n1 1:-0.46936946 2:-0.51372602 3:-0.54506655 4:0.31859501 5:-0.55881033 \n1 1:-0.59269893 2:-0.29267849 3:-0.15529233 4:0.48460326 5:0.095407735 \n1 1:-0.53369216 2:-0.27335071 3:-0.28953664 4:0.40713274 5:0.88289245 \n1 1:-0.38218829 2:-0.12206089 3:-0.2472183 4:0.20792283 5:1.131253 \n1 1:-0.31148648 2:-0.20348192 3:-0.17790261 4:0.1193851 5:0.89500759 \n1 1:-0.40079403 2:-0.43074989 3:-0.35055065 4:0.23005727 5:-0.080261931 \n1 1:-0.42790524 2:0.19718062 3:0.16887834 4:0.26325892 5:0.053004712 \n1 1:-0.30670215 2:-0.28379215 3:-0.36546668 4:0.11385149 5:-0.39525582 \n1 1:-0.4598008 2:-0.44796716 3:-0.42796555 4:0.30752779 5:-0.19535585 \n1 1:-0.12330272 2:0.79412005 3:0.51991136 4:-0.10195925 5:0.75568338 \n1 1:-0.50285979 2:-0.18271011 3:-0.30809732 4:0.36286388 5:0.083292586 \n1 1:-0.44332143 2:-0.28801316 3:-0.39070921 4:0.28539336 5:-0.34073764 \n1 1:-0.59535689 2:-0.55149294 3:-0.66277498 4:0.49013687 5:1.6400893 \n1 1:-0.63628952 2:-0.75287946 3:-0.73951495 4:0.55100657 5:0.59212886 \n1 1:-0.60279919 2:-0.79731113 3:-0.80640088 4:0.50120409 5:0.25290468 \n1 1:-0.59907804 2:-0.79397875 3:-0.8051185 4:0.49567048 5:0.18021378 \n1 1:-0.67456418 2:-0.66112807 3:-0.78237324 4:0.60634265 5:0.25290468 \n1 1:-0.65117411 2:-0.56837697 3:-0.77535393 4:0.573141 5:0.27713498 \n1 1:-0.53316057 2:-0.67368002 3:-0.7735991 4:0.40159914 5:0.35588345 \n1 1:-0.68200648 2:-0.76987457 3:-0.82901116 4:0.61740987 5:0.059062287 \n1 1:-0.65276889 2:-0.80764149 3:-0.80336368 4:0.573141 5:-0.44977399 \n1 1:-0.66871666 2:-0.59303654 3:-0.74660175 4:0.59527544 5:-0.16506798 \n1 1:-0.58366186 2:-0.43263823 3:-0.7216967 4:0.47353605 5:-1.4371587 \n1 1:-0.58897778 2:-0.59292547 3:-0.65433831 4:0.47906966 5:-0.28621947 \n1 1:-0.68147488 2:-0.71411283 3:-0.72851353 4:0.61740987 5:0.24078953 \n1 1:-0.69901744 2:-0.74632579 3:-0.79843666 4:0.6395443 5:0.55578341 \n1 1:-0.71230725 2:-0.74410421 3:-0.8011364 4:0.66167874 5:0.45280464 \n1 1:-0.63469474 2:-0.79109069 3:-0.82037201 4:0.54547296 5:-0.056031632 \n0.9847019967028804 1:-0.67988011 2:-0.76787515 3:-0.82421913 4:0.61187626 5:0.32559557 \n1 1:-0.69157514 2:-0.73632867 3:-0.79668183 4:0.62847709 5:-0.056031632 \n1 1:-0.78779339 2:-0.77631716 3:-0.79107988 4:0.77788452 5:0.48915009 \n1 1:-0.71496521 2:-0.74543716 3:-0.82307174 4:0.66721235 5:-0.35891037 \n1 1:-0.65649003 2:-0.80130998 3:-0.81564747 4:0.57867461 5:-0.2317013 \n1 1:-0.79098295 2:-0.74677011 3:-0.82948361 4:0.78341813 5:0.028774414 \n1 1:-0.87710094 2:-0.72299917 3:-0.84244234 4:0.92729195 5:0.22867438 \n1 1:-0.89039075 2:-0.68745383 3:-0.82583897 4:0.94942639 5:-0.17112555 \n0.05872340484603136 1:-0.73357095 2:-0.58659395 3:-0.74471194 4:0.69488039 5:1.3856711 \n1 1:-0.71230725 2:-0.58514992 3:-0.72999838 4:0.66167874 5:1.2524045 \n1 1:-0.52678146 2:-0.65568519 3:-0.76307013 4:0.39606553 5:0.13781076 \n1 1:-0.49860705 2:-0.68578765 3:-0.77420654 4:0.35733027 5:-0.6133285 \n1 1:-0.77450358 2:-0.68856463 3:-0.83474809 4:0.75575008 5:-0.38919824 \n1 1:-0.7803511 2:-0.6732357 3:-0.81672736 4:0.7668173 5:0.028774414 \n1 1:-0.77556676 2:-0.78153789 3:-0.83373569 4:0.76128369 5:-0.12872253 \n1 1:-0.86646909 2:-0.62469411 3:-0.81949459 4:0.90515752 5:-0.019686184 \n1 1:-0.77237721 2:-0.67401325 3:-0.81976457 4:0.75575008 5:0.2468471 \n1 1:-0.81968894 2:-0.67034764 3:-0.81875217 4:0.827687 5:-0.80111332 \n1 1:-0.74367121 2:-0.46996083 3:-0.71798456 4:0.71148122 5:-1.2069708 \n1 1:-0.54591879 2:-0.65068663 3:-0.80194632 4:0.42373357 5:-0.0075710346 \n1 1:-0.64957933 2:-0.63802361 3:-0.76442 4:0.56760739 5:-0.0075710346 \n1 1:-0.68838559 2:-0.62025094 3:-0.78642284 4:0.62847709 5:0.12569561 \n1 1:-0.85530564 2:-0.77242939 3:-0.81713233 4:0.88855669 5:0.76174095 \n1 1:-0.89995942 2:-0.70267168 3:-0.78676031 4:0.9604936 5:0.60424401 \n1 1:-0.80905709 2:-0.60725468 3:-0.79695181 4:0.81108617 5:-0.77082545 \n1 1:-0.64745296 2:-0.55104862 3:-0.74990893 4:0.56760739 5:0.87683487 \n1 1:-0.54166605 2:-0.7366619 3:-0.8000565 4:0.41266635 5:0.13781076 \n1 1:-0.79310932 2:-0.69911715 3:-0.83029353 4:0.78895174 5:-0.37102552 \n1 1:-0.68891718 2:-0.69600693 3:-0.79668183 4:0.62847709 5:-0.068146782 \n1 1:-0.63309996 2:-0.6732357 3:-0.78237324 4:0.54547296 5:0.010601689 \n1 1:-0.61236785 2:-0.67834534 3:-0.79384711 4:0.51227131 5:0.083292586 \n1 1:-0.59588849 2:-0.68523225 3:-0.79614189 4:0.49013687 5:0.38617132 \n1 1:-0.64638978 2:-0.7206665 3:-0.79863914 4:0.56207378 5:0.45280464 \n1 1:-0.65276889 2:-0.69811743 3:-0.79897661 4:0.573141 5:0.41040162 \n1 1:-0.62725245 2:-0.73610651 3:-0.80484853 4:0.53440574 5:0.065119862 \n1 1:-0.48319087 2:-0.56071251 3:-0.74396951 4:0.33519583 5:0.42251677 \n1 1:-0.49329113 2:-0.59037064 3:-0.73924497 4:0.35179666 5:0.21050165 \n1 1:-0.52731305 2:-0.68023369 3:-0.78406057 4:0.39606553 5:-0.80111332 \n1 1:-0.48265928 2:-0.63091454 3:-0.7654999 4:0.33519583 5:-0.34679522 \n1 1:-0.47946972 2:-0.67445757 3:-0.78622036 4:0.32966222 5:0.50126524 \n1 1:-0.73516573 2:-0.68812031 3:-0.83042852 4:0.69488039 5:0.34982587 \n1 1:-0.76280854 2:-0.58548316 3:-0.78655783 4:0.73914926 5:-0.2801619 \n1 1:-0.66286915 2:-0.62924835 3:-0.77859361 4:0.58974183 5:-0.10449223 \n1 1:-0.75696102 2:-0.74388205 3:-0.83333073 4:0.72808204 5:0.35588345 \n1 1:-0.47149583 2:-0.74110507 3:-0.77690628 4:0.31859501 5:-0.42554369 \n1 1:-0.5166812 2:-0.70278276 3:-0.77150681 4:0.3794647 5:-0.65573153 \n1 1:-0.6729694 2:-0.76420954 3:-0.8122728 4:0.60080904 5:-0.068146782 \n1 1:-0.50711253 2:-0.81075171 3:-0.800124 4:0.36839748 5:-0.16506798 \n1 1:-0.62991041 2:-0.67545728 3:-0.8031612 4:0.53993935 5:-0.080261931 \n1 1:-0.38750421 2:-0.64702102 3:-0.78507297 4:0.21345644 5:0.040889563 \n0.4740319576312167 1:-0.28650163 2:-0.57626359 3:-0.70273106 4:0.086183446 5:1.2645197 \n1 1:-0.077585763 2:0.0075684923 3:-0.53966708 4:-0.15176172 5:1.5068226 \n1 1:-0.075459393 2:-0.069409368 3:-0.59116452 4:-0.15176172 5:1.900565 \n1 1:-0.62299971 2:-0.72633154 3:-0.80957307 4:0.52887213 5:0.077235011 \n1 1:-0.62565767 2:-0.69878391 3:-0.79944906 4:0.53440574 5:-0.049974057 \n1 1:-0.60970989 2:-0.77198508 3:-0.80741328 4:0.51227131 5:0.19838651 \n1 1:-0.3954781 2:-0.72944176 3:-0.77778369 4:0.22452366 5:0.046947138 \n1 1:-0.3954781 2:-0.5597128 3:-0.72864852 4:0.22452366 5:0.44068949 \n1 1:-0.40876791 2:-0.5191689 3:-0.7257463 4:0.24112449 5:-0.12872253 \n1 1:-0.5305026 2:-0.63780145 3:-0.77427403 4:0.40159914 5:-0.47400429 \n1 1:-0.48159609 2:-0.52438962 3:-0.74646677 4:0.33519583 5:-1.1403375 \n1 1:-0.44438461 2:-0.74699227 3:-0.77299166 4:0.28539336 5:0.13175318 \n1 1:-0.51827598 2:-0.77309587 3:-0.79161983 4:0.38499831 5:0.44068949 \n1 1:-0.61768378 2:-0.76198795 3:-0.80579344 4:0.52333852 5:0.2953077 \n1 1:-0.62831563 2:-0.82574739 3:-0.81051797 4:0.53993935 5:0.065119862 \n1 1:-0.67828533 2:-0.68856463 3:-0.78487049 4:0.61187626 5:-0.76476787 \n1 1:-0.5879146 2:-0.65013123 3:-0.81510752 4:0.47906966 5:-0.12266495 \n1 1:-0.39600969 2:-0.36632397 3:-0.63773494 4:0.22452366 5:0.2953077 \n1 1:-0.18549905 2:-0.50039652 3:-0.73620777 4:-0.030022334 5:0.33771072 \n1 1:-0.25939041 2:-0.68345498 3:-0.75146127 4:0.052981794 5:-0.17718313 \n1 1:-0.4241841 2:-0.69522938 3:-0.74322708 4:0.25772531 5:-0.48611944 \n1 1:-1.239647 2:-0.72588722 3:-0.64563167 4:1.6079258 5:0.26501983 \n1 1:-1.2295468 2:-0.94771231 3:-0.86606502 4:1.5857914 5:-0.10449223 \n1 1:-1.2417734 2:-0.97115002 3:-0.8856381 4:1.6134594 5:0.11963803 \n1 1:-1.2337995 2:-0.97514887 3:-0.89117255 4:1.5968586 5:0.22867438 \n1 1:-1.23061 2:-0.96637361 3:-0.89009266 4:1.591325 5:-0.013628609 \n1 1:-1.2454946 2:-0.97092786 3:-0.88401826 4:1.618993 5:0.095407735 \n1 1:-1.2337995 2:-0.97692613 3:-0.89819186 4:1.5968586 5:0.016659264 \n1 1:-1.2401786 2:-0.97748153 3:-0.89549213 4:1.6079258 5:0.046947138 \n1 1:-1.2417734 2:-0.9707057 3:-0.89231994 4:1.6134594 5:0.24078953 \n1 1:-1.2221045 2:-0.96692901 3:-0.8794962 4:1.5691905 5:0.0045441148 \n1 1:-1.2199781 2:-0.97081678 3:-0.87524412 4:1.5691905 5:0.23473195 \n1 1:-1.2178518 2:-0.96448527 3:-0.87220692 4:1.5636569 5:-0.013628609 \n1 1:-1.227952 2:-0.97703721 3:-0.87652649 4:1.5802578 5:0.2226168 \n1 1:-1.2146622 2:-0.97214973 3:-0.89252242 4:1.5525897 5:0.23473195 \n1 1:-1.2183833 2:-0.96148613 3:-0.87423172 4:1.5636569 5:0.13175318 \n1 1:-1.2183833 2:-0.93616008 3:-0.83306076 4:1.5636569 5:0.18627136 \n1 1:-1.2061567 2:-0.92705159 3:-0.81922462 4:1.5359889 5:-0.0015134599 \n1 1:-1.2199781 2:-0.9525998 3:-0.85864075 4:1.5691905 5:0.065119862 \n1 1:-1.2104095 2:-0.97348268 3:-0.89468221 4:1.5470561 5:0.10752288 \n1 1:-1.187551 2:-0.97503779 3:-0.88300586 4:1.4972536 5:0.0045441148 \n0.8750286009039532 1:-1.1790455 2:-0.97903664 3:-0.89285989 4:1.4806528 5:0.14386833 \n1 1:-1.187551 2:-0.97037246 3:-0.89245493 4:1.4972536 5:0.11963803 \n1 1:-1.1811719 2:-0.96881735 3:-0.88476068 4:1.4861864 5:-0.043916483 \n1 1:-1.1896773 2:-0.95126685 3:-0.85972064 4:1.5027872 5:0.2468471 \n1 1:-1.1864878 2:-0.96193045 3:-0.86970966 4:1.4972536 5:0.059062287 \n1 1:-1.1843614 2:-0.94926742 3:-0.85580603 4:1.49172 5:0.040889563 \n1 1:-1.1896773 2:-0.93904814 3:-0.84655943 4:1.5027872 5:0.24078953 \n1 1:-1.1918037 2:-0.94304699 3:-0.85486112 4:1.5083209 5:0.010601689 \n1 1:-1.1880826 2:-0.95626541 3:-0.8917125 4:1.5027872 5:0.10752288 \n1 1:-1.1928669 2:-0.96659577 3:-0.88300586 4:1.5083209 5:0.2710774 \n1 1:-1.1918037 2:-0.97459347 3:-0.88138601 4:1.5083209 5:0.046947138 \n1 1:-1.1790455 2:-0.95148901 3:-0.86478265 4:1.4806528 5:-0.074204356 \n1 1:-1.1891458 2:-0.92849562 3:-0.84919168 4:1.5027872 5:0.37405617 \n1 1:-1.1779823 2:-0.92549648 3:-0.84008007 4:1.4806528 5:0.040889563 \n1 1:-1.1795771 2:-0.93571576 3:-0.84433215 4:1.4806528 5:0.15598348 \n1 1:-1.1832982 2:-0.96226368 3:-0.88901277 4:1.49172 5:0.10752288 \n1 1:-1.1817035 2:-0.96081966 3:-0.87585156 4:1.4861864 5:0.059062287 \n1 1:-1.1646925 2:-0.91461072 3:-0.81848219 4:1.4529848 5:0.25290468 \n1 1:-1.1556554 2:-0.92971749 3:-0.83825775 4:1.4363839 5:0.016659264 \n1 1:-1.1641609 2:-0.94371346 3:-0.87220692 4:1.4529848 5:0.0045441148 \n1 1:-1.1758559 2:-0.94549073 3:-0.86228539 4:1.4751192 5:0.028774414 \n1 1:-1.1790455 2:-0.94826771 3:-0.87888876 4:1.4806528 5:0.15598348 \n1 1:-1.1742612 2:-0.94704584 3:-0.88678548 4:1.4695856 5:-0.12266495 \n1 1:-1.2013724 2:-0.96670685 3:-0.88800036 4:1.5249217 5:0.22867438 \n1 1:-1.2003092 2:-0.94682368 3:-0.86694243 4:1.5249217 5:0.16809863 \n1 1:-1.1928669 2:-0.96570714 3:-0.88739292 4:1.5083209 5:0.028774414 \n1 1:-1.2045619 2:-0.92682943 3:-0.85263384 4:1.5359889 5:0.13175318 \n1 1:-1.1965881 2:-0.95404383 3:-0.89130754 4:1.5193881 5:0.065119862 \n1 1:-1.1370497 2:-0.95959778 3:-0.87355678 4:1.3976487 5:0.022716839 \n1 1:-1.144492 2:-0.95837591 3:-0.87551409 4:1.4142495 5:0.21050165 \n1 1:-1.1343917 2:-0.94715692 3:-0.87720143 4:1.3921151 5:-0.0015134599 \n1 1:-1.1397076 2:-0.92127547 3:-0.83387068 4:1.4031823 5:0.10146531 \n1 1:-1.1423656 2:-0.94215836 3:-0.87213942 4:1.4087159 5:0.2468471 \n1 1:-1.1370497 2:-0.93416066 3:-0.84743685 4:1.3976487 5:-0.025743759 \n1 1:-1.1370497 2:-0.93682656 3:-0.84541205 4:1.3976487 5:0.16204106 \n1 1:-1.1237599 2:-0.94071433 3:-0.84959664 4:1.3699806 5:0.14386833 \n1 1:-1.127481 2:-0.94149188 3:-0.85837077 4:1.3810479 5:0.034831988 \n1 1:-1.1253547 2:-0.93493821 3:-0.85027157 4:1.3755142 5:0.11963803 \n1 1:-1.1221651 2:-0.91672123 3:-0.84352223 4:1.3699806 5:0.065119862 \n1 1:-1.1179124 2:-0.93082828 3:-0.85816829 4:1.3589134 5:0.10752288 \n1 1:-1.1253547 2:-0.95937563 3:-0.87625652 4:1.3755142 5:0.11963803 \n1 1:-1.1094069 2:-0.93904814 3:-0.86235288 4:1.3423126 5:-0.0075710346 \n1 1:-1.1094069 2:-0.93282771 3:-0.8479768 4:1.3423126 5:0.17415621 \n1 1:-1.1195071 2:-0.93827058 3:-0.84871922 4:1.364447 5:-0.056031632 \n1 1:-1.1078121 2:-0.93360526 3:-0.86046307 4:1.3423126 5:0.053004712 \n1 1:-1.1072805 2:-0.95137793 3:-0.86302782 4:1.336779 5:0.17415621 \n1 1:-1.1072805 2:-0.94493533 3:-0.85108149 4:1.336779 5:0.034831988 \n1 1:-1.1205703 2:-0.92016468 3:-0.84149743 4:1.364447 5:0.077235011 \n1 1:-1.1051541 2:-0.89295029 3:-0.83933764 4:1.336779 5:0.25290468 \n1 1:-1.1104701 2:-0.90117014 3:-0.82826873 4:1.3478462 5:0.0045441148 \n1 1:-1.1168492 2:-0.90950108 3:-0.82631142 4:1.3589134 5:0.14386833 \n1 1:-1.1125964 2:-0.90428036 3:-0.82934863 4:1.3478462 5:-0.031801333 \n1 1:-1.1051541 2:-0.93827058 3:-0.85641347 4:1.336779 5:-0.025743759 \n1 1:-1.1179124 2:-0.94160296 3:-0.84757184 4:1.3589134 5:0.25290468 \n1 1:-1.1094069 2:-0.94349131 3:-0.86296032 4:1.3423126 5:0.010601689 \n1 1:-1.1056857 2:-0.95637649 3:-0.87463668 4:1.336779 5:0.053004712 \n1 1:-1.1019646 2:-0.93738195 3:-0.85533357 4:1.3312454 5:0.20444408 \n1 1:-1.1003698 2:-0.91994252 3:-0.85796581 4:1.3257118 5:-0.013628609 \n1 1:-1.1072805 2:-0.88284208 3:-0.83144092 4:1.336779 5:0.16809863 \n1 1:-1.1024962 2:-0.87884323 3:-0.82151939 4:1.3312454 5:0.028774414 \n1 1:-1.098775 2:-0.92960641 3:-0.84250983 4:1.3201782 5:0.14386833 \n1 1:-1.1067489 2:-0.93182799 3:-0.85762835 4:1.336779 5:0.11358046 \n1 1:-1.08708 2:-0.93371634 3:-0.86977715 4:1.2980437 5:0.089350161 \n1 1:-1.1056857 2:-0.91138943 3:-0.85344376 4:1.336779 5:0.046947138 \n1 1:-1.1125964 2:-0.93260555 3:-0.851014 4:1.3478462 5:0.319538 \n1 1:-1.0993066 2:-0.95404383 3:-0.85870824 4:1.3257118 5:0.089350161 \n1 1:0.094118626 2:-0.31756022 3:-0.46792162 4:-0.3288372 5:-0.60121335 \n1 1:-0.23121601 2:-0.4957312 3:-0.71110024 4:0.019780143 5:0.82837427 \n1 1:-0.25885882 2:-0.6572403 3:-0.72952593 4:0.052981794 5:0.76174095 \n0.3953592280330923 1:0.16428884 2:-0.59481381 3:-0.68045825 4:-0.3952405 5:0.30136527 \n1 1:-1.2752637 2:-0.83985445 3:-0.83920266 4:1.6853963 5:0.82837427 \n1 1:-1.2885536 2:-0.81108494 3:-0.84136245 4:1.7130644 5:0.67693491 \n1 1:-1.3103489 2:-0.80941876 3:-0.82583897 4:1.7628668 5:-0.24381645 \n1 1:-1.3231071 2:-0.89650482 3:-0.8846257 4:1.7905349 5:-0.43765884 \n1 1:-1.3124752 2:-0.84140955 3:-0.85067653 4:1.7684005 5:-0.60121335 \n1 1:-1.2715426 2:-0.83163459 3:-0.86876475 4:1.6743291 5:0.48309252 \n1 1:-1.325765 2:-0.82397013 3:-0.85769584 4:1.7960685 5:0.022716839 \n1 1:-1.3156648 2:-0.73866133 3:-0.81915713 4:1.7739341 5:0.18627136 \n1 1:-1.3534078 2:-0.83441157 3:-0.82921364 4:1.8624718 5:-0.086319506 \n1 1:-1.3326757 2:-0.81919372 3:-0.84655943 4:1.8126693 5:0.59818643 \n1 1:-1.302375 2:-0.88784064 3:-0.85290381 4:1.746266 5:0.54972584 \n0.052658227902449 1:-1.3762663 2:-0.83907689 3:-0.87902375 4:1.9122743 5:-0.79505574 \n1 1:-1.3693556 2:-0.84707459 3:-0.87092454 4:1.8956735 5:-0.66784668 \n1 1:-1.3395864 2:-0.77576177 3:-0.85054154 4:1.8292702 5:-0.39525582 \n1 1:-1.2625055 2:-0.83552236 3:-0.85236386 4:1.6577283 5:0.8707773 \n1 1:-1.2550632 2:-0.83307862 3:-0.82327422 4:1.6411275 5:0.57395614 \n1 1:-1.2635687 2:-0.80342048 3:-0.76759219 4:1.6577283 5:-0.2317013 \n1 1:-1.3007802 2:-0.71344636 3:-0.81072045 4:1.7407324 5:-1.0918769 \n1 1:-1.2986538 2:-0.813973 3:-0.84055252 4:1.7351988 5:0.82837427 \n1 1:-1.2667583 2:-0.8006435 3:-0.80457856 4:1.6632619 5:1.0282742 \n1 1:-1.325765 2:-0.84729675 3:-0.83022604 4:1.7960685 5:-0.58909821 \n1 1:-1.2954643 2:-0.77431774 3:-0.84028255 4:1.7296652 5:-0.49217701 \n1 1:-1.2784533 2:-0.74765874 3:-0.83096847 4:1.6909299 5:-0.043916483 \n1 1:-1.273669 2:-0.8326343 3:-0.83130593 4:1.6798627 5:0.54972584 \n1 1:-1.244963 2:-0.79886623 3:-0.83137343 4:1.618993 5:0.99192879 \n1 1:-1.3076909 2:-0.81619458 3:-0.85513109 4:1.7573332 5:-0.24987402 \n1 1:-1.2986538 2:-0.84774107 3:-0.86005811 4:1.7351988 5:-0.52852246 \n1 1:-1.273669 2:-0.78309299 3:-0.83083348 4:1.6798627 5:0.040889563 \n1 1:-1.2066883 2:-0.76476493 3:-0.83535554 4:1.5415225 5:0.86471972 \n1 1:-1.2598476 2:-0.80319832 3:-0.80916811 4:1.6521947 5:0.92529547 \n1 1:-1.2635687 2:-0.78487026 3:-0.81159787 4:1.6577283 5:0.73751065 \n1 1:-1.2726058 2:-0.82152638 3:-0.86296032 4:1.6798627 5:0.26501983 \n1 1:-1.3682924 2:-0.8640697 3:-0.84142994 4:1.8956735 5:-0.2559316 \n1 1:-1.2651635 2:-0.79497846 3:-0.86066555 4:1.6632619 5:0.38617132 \n1 1:-1.2550632 2:-0.72677586 3:-0.81598494 4:1.6411275 5:-0.20141342 \n1 1:-1.3278914 2:-0.77087429 3:-0.82577148 4:1.8016021 5:-0.0075710346 \n1 1:-1.2890852 2:-0.7558786 3:-0.81692984 4:1.7130644 5:0.49520767 \n1 1:-1.2991854 2:-0.78375947 3:-0.83056351 4:1.7351988 5:-0.81322847 \n1 1:-1.2890852 2:-0.84607488 3:-0.85256634 4:1.7130644 5:0.88895002 \n1 1:-1.3092857 2:-0.83574452 3:-0.84878672 4:1.7573332 5:-0.74053757 \n1 1:-1.2816429 2:-0.84418653 3:-0.86059806 4:1.6964635 5:-0.51640731 \n1 1:-1.2205097 2:-0.77920522 3:-0.84014756 4:1.5691905 5:-0.2801619 \n1 1:-1.2438998 2:-0.79175717 3:-0.84595199 4:1.618993 5:0.41645919 \n1 1:-1.2641003 2:-0.79975487 3:-0.83906767 4:1.6632619 5:-0.40737096 \n1 1:-1.2502789 2:-0.82119315 3:-0.87564908 4:1.6300602 5:0.39828647 \n1 1:-1.2587844 2:-0.79331228 3:-0.8265814 4:1.6466611 5:1.0585621 \n1 1:-1.2598476 2:-0.8347448 3:-0.82421913 4:1.6521947 5:0.68905006 \n1 1:-1.268353 2:-0.82474768 3:-0.84412967 4:1.6687955 5:0.74356823 \n1 1:-1.3071593 2:-0.82652495 3:-0.84925917 4:1.7517996 5:0.25290468 \n1 1:-1.239647 2:-0.81286221 3:-0.85715589 4:1.6079258 5:0.82837427 \n1 1:-1.2066883 2:-0.8187494 3:-0.85357875 4:1.5415225 5:1.0040439 \n1 1:-1.1790455 2:-0.8385215 3:-0.86336528 4:1.4806528 5:0.7738561 \n1 1:-1.2093463 2:-0.76754191 3:-0.82732382 4:1.5415225 5:0.52549554 \n1 1:-1.3156648 2:-0.79631141 3:-0.84574951 4:1.7739341 5:-0.7587103 \n1 1:-1.2757953 2:-0.79819976 3:-0.84581701 4:1.6853963 5:-0.73448 \n1 1:-1.2221045 2:-0.75710047 3:-0.825569 4:1.5691905 5:-0.51034973 \n1 1:-1.2353943 2:-0.79131285 3:-0.86532259 4:1.5968586 5:0.11963803 \n1 1:-1.256658 2:-0.77309587 3:-0.84062002 4:1.6411275 5:0.64058946 \n1 1:-1.2587844 2:-0.82330365 3:-0.86943969 4:1.6466611 5:0.44068949 \n1 1:-1.2641003 2:-0.80797473 3:-0.85492861 4:1.6632619 5:0.010601689 \n1 1:-1.3130068 2:-0.8358556 3:-0.83427564 4:1.7684005 5:-0.33468007 \n1 1:-1.242305 2:-0.79753328 3:-0.810248 4:1.6134594 5:-0.38314067 \n1 1:-1.225294 2:-0.79275688 3:-0.81902214 4:1.5802578 5:0.42857434 \n1 1:-1.2194465 2:-0.78420379 3:-0.84041754 4:1.5636569 5:1.0646197 \n1 1:-1.2385839 2:-0.79175717 3:-0.84311727 4:1.6079258 5:0.64664703 \n1 1:-1.2619739 2:-0.78964666 3:-0.83960762 4:1.6577283 5:0.8223167 \n1 1:-1.3119436 2:-0.82841329 3:-0.85209389 4:1.7628668 5:0.42857434 \n1 1:-1.2667583 2:-0.75821126 3:-0.83292577 4:1.6632619 5:-0.49217701 \n1 1:-1.2502789 2:-0.81064063 3:-0.83150841 4:1.6300602 5:-0.58909821 \n1 1:-1.2720742 2:-0.8320789 3:-0.83110345 4:1.6798627 5:-0.6617891 \n1 1:-1.2843008 2:-0.79875516 3:-0.8479093 4:1.7019972 5:-0.6133285 \n1 1:-1.3119436 2:-0.83007948 3:-0.86235288 4:1.7628668 5:-0.062089207 \n1 1:-1.2433682 2:-0.74888061 3:-0.83393817 4:1.6134594 5:-0.16506798 \n1 1:-1.2928063 2:-0.87917647 3:-0.87288185 4:1.7241316 5:-0.29833462 \n1 1:-1.2789849 2:-0.84240927 3:-0.82698636 4:1.6909299 5:0.046947138 \n1 1:-1.2380523 2:-0.77209616 3:-0.82988857 4:1.6023922 5:-0.66784668 \n1 1:-1.2247625 2:-0.78809156 3:-0.83495058 4:1.5747242 5:-0.87380422 \n1 1:-1.2555948 2:-0.81041847 3:-0.83954012 4:1.6411275 5:-0.66784668 \n1 1:-1.2215729 2:-0.78531458 3:-0.79202479 4:1.5691905 5:0.88289245 \n1 1:-1.3002486 2:-0.86584697 3:-0.8621504 4:1.7407324 5:-0.43765884 \n1 1:-1.3018434 2:-0.83074595 3:-0.85162144 4:1.7407324 5:-0.7102497 \n1 1:-1.2816429 2:-0.81230681 3:-0.84885421 4:1.6964635 5:-0.69207698 \n1 1:-1.2720742 2:-0.77676148 3:-0.84392719 4:1.6798627 5:-0.0075710346 \n1 1:-1.2587844 2:-0.73366277 3:-0.79458954 4:1.6466611 5:0.50732281 \n1 1:-1.2555948 2:-0.83574452 3:-0.83292577 4:1.6411275 5:0.7253955 \n1 1:-1.3007802 2:-0.87340035 3:-0.85310629 4:1.7407324 5:-0.43160126 \n1 1:-1.1795771 2:-0.78864695 3:-0.83002356 4:1.4806528 5:0.65270461 \n1 1:-1.2816429 2:-0.75710047 3:-0.80781824 4:1.6964635 5:1.2160591 \n1 1:-1.2268888 2:-0.7713186 3:-0.77589388 4:1.5802578 5:0.98587122 \n1 1:-1.1694768 2:-0.81441732 3:-0.81159787 4:1.464052 5:0.62241673 \n1 1:-1.3108804 2:-0.79342336 3:-0.8163224 4:1.7628668 5:-0.52852246 \n1 1:-1.2986538 2:-0.78242652 3:-0.82421913 4:1.7351988 5:-0.85563149 \n1 1:-1.2651635 2:-0.82907977 3:-0.83758282 4:1.6632619 5:-0.40737096 \n1 1:-1.2151938 2:-0.75676723 3:-0.80565845 4:1.5581233 5:-0.30439219 \n1 1:-1.1944617 2:-0.79220148 3:-0.8346806 4:1.5138545 5:1.0282742 \n1 1:-1.2236993 2:-0.78886911 3:-0.8530388 4:1.5747242 5:0.49520767 \n1 1:-1.2571896 2:-0.75965529 3:-0.84318477 4:1.6466611 5:-0.21352857 \n1 1:-1.2789849 2:-0.80253185 3:-0.85843827 4:1.6909299 5:-0.46794671 \n1 1:-1.2672899 2:-0.84285358 3:-0.85371373 4:1.6687955 5:-0.72236485 \n1 1:-1.2550632 2:-0.80430911 3:-0.86289283 4:1.6411275 5:-0.82534362 \n1 1:-1.2843008 2:-0.77920522 3:-0.8275938 4:1.7019972 5:-0.1105498 \n0.6816432169704769 1:-1.2151938 2:-0.78931343 3:-0.84730186 4:1.5581233 5:1.1554833 \n1 1:-1.2061567 2:-0.78342623 3:-0.83400567 4:1.5359889 5:1.1191379 \n1 1:-1.3262966 2:-0.91083403 3:-0.88118353 4:1.7960685 5:-0.056031632 \n1 1:-1.2938695 2:-0.79353443 3:-0.85081152 4:1.7241316 5:-0.90409209 \n1 1:-1.2800481 2:-0.80886336 3:-0.81031549 4:1.6964635 5:-0.56486791 \n1 1:-1.2699478 2:-0.84040984 3:-0.82779628 4:1.6743291 5:-0.55881033 \n1 1:-1.2837692 2:-0.77598393 3:-0.84750434 4:1.7019972 5:-0.92226481 \n1 1:-1.3092857 2:-0.80308724 3:-0.83582799 4:1.7573332 5:-0.062089207 \n1 1:-1.2603792 2:-0.79231256 3:-0.83927015 4:1.6521947 5:0.64058946 \n1 1:-1.2003092 2:-0.85085128 3:-0.84480461 4:1.5249217 5:0.70722278 \n1 1:-1.2300784 2:-0.80641962 3:-0.82806625 4:1.5857914 5:-0.29227705 \n1 1:-1.2837692 2:-0.7798717 3:-0.81450008 4:1.7019972 5:-0.12266495 \n1 1:-1.1774507 2:-0.813973 3:-0.84176741 4:1.4806528 5:0.90106517 \n1 1:-1.254 2:-0.87351143 3:-0.85141896 4:1.6411275 5:-0.48611944 \n1 1:-1.244963 2:-0.79553386 3:-0.82313924 4:1.618993 5:0.54366826 \n1 1:-1.2508105 2:-0.75243514 3:-0.84615447 4:1.6300602 5:-0.14083768 \n1 1:-1.2465577 2:-0.76909702 3:-0.80194632 4:1.6245266 5:-0.44977399 \n1 1:-1.2486841 2:-0.78364839 3:-0.79816669 4:1.6245266 5:-0.79505574 \n1 1:-1.2268888 2:-0.60147856 3:-0.728851 4:1.5802578 5:0.57395614 \n1 1:-1.2061567 2:-0.81852725 3:-0.84331975 4:1.5359889 5:0.61030158 \n1 1:-1.2726058 2:-0.83929905 3:-0.84304978 4:1.6798627 5:-0.61938608 \n1 1:0.18767891 2:0.65815915 3:0.38397971 4:-0.41737494 5:1.373556 \n1 1:0.5231138 2:1.1012539 3:0.77996332 4:-0.7161898 5:2.2337316 \n1 1:0.34396712 2:0.76535055 3:0.42623056 4:-0.56124876 5:1.3008651 \n1 1:0.0095954124 2:0.26260625 3:0.35394516 4:-0.24029946 5:0.45886222 \n1 1:-0.0015680308 2:0.81811315 3:0.87013446 4:-0.22923224 5:-0.40737096 \n1 1:0.072323332 2:0.44388745 3:0.36744383 4:-0.30670276 5:0.44674707 \n1 1:0.31313475 2:0.84632726 3:1.099342 4:-0.53358072 5:-0.35891037 \n1 1:0.026606374 2:0.36968657 3:0.21463884 4:-0.25690029 5:1.8884498 \n1 1:0.096776588 2:0.49831624 3:0.34409113 4:-0.3288372 5:0.48309252 \n1 1:0.22116924 2:0.44777522 3:0.41705146 4:-0.45057659 5:-0.33468007 \n1 1:0.17811025 2:0.33125317 3:0.28098483 4:-0.41184133 5:1.4644196 \n1 1:-0.037716323 2:0.085768223 3:0.15112758 4:-0.19049698 5:0.88289245 \n1 1:0.10102933 2:0.11731471 3:0.15895681 4:-0.33437081 5:-0.40131339 \n1 1:0.10581366 2:0.090655707 3:0.20566222 4:-0.33990442 5:1.658262 \n1 1:0.17757865 2:0.42822528 3:0.31716127 4:-0.40630772 5:0.46491979 \n1 1:0.066475814 2:0.83022078 3:0.68709244 4:-0.30116916 5:-0.42554369 \n1 1:-0.071206653 2:0.66549038 3:0.47307096 4:-0.15729533 5:1.6340317 \n1 1:0.066475814 2:0.46743623 3:0.52126123 4:-0.30116916 5:-0.54669518 \n1 1:-0.00050484574 2:0.21939646 3:0.12838231 4:-0.22923224 5:0.73145308 \n1 1:0.090397478 2:0.099875277 3:0.12129551 4:-0.32330359 5:0.2953077 \n1 1:-0.083964874 2:0.63572116 3:0.53867452 4:-0.14069451 5:-0.57698306 \n1 1:0.10421888 2:-0.40520168 3:-0.42418592 4:-0.33990442 5:0.071177436 \n1 1:0.31100838 2:0.50653609 3:0.49156414 4:-0.53358072 5:0.41645919 \n1 1:0.5374668 2:0.72558421 3:0.79184215 4:-0.72725702 5:-1.7582101 \n1 1:0.28708672 2:0.52641926 3:0.3443611 4:-0.51144628 5:-1.019186 \n1 1:0.13983558 2:0.36857577 3:0.32519298 4:-0.37310607 5:0.10146531 \n1 1:0.13770921 2:0.21473113 3:0.29266118 4:-0.37310607 5:0.56789856 \n1 1:0.40882141 2:1.1736776 3:0.80075128 4:-0.61658484 5:-0.013628609 \n1 1:0.35087782 2:1.3421846 3:0.83524039 4:-0.56678237 5:-0.41342854 \n1 1:0.10687685 2:0.14030809 3:-0.032791857 4:-0.33990442 5:-1.0373587 \n1 1:0.14621469 2:-0.039417994 3:-0.29588102 4:-0.37863968 5:-0.77082545 \n1 1:-0.0052891786 2:-0.15571788 3:-0.22913007 4:-0.22923224 5:0.78597125 \n1 1:-0.11692361 2:-0.053747206 3:-0.066268569 4:-0.10749285 5:0.3437683 \n1 1:-0.06429595 2:-0.067521022 3:-0.064311262 4:-0.16282894 5:-0.207471 \n1 1:-0.023894917 2:-0.11228593 3:-0.20274017 4:-0.20709781 5:-0.062089207 \n1 1:0.10953481 2:0.49142933 3:0.076817378 4:-0.34543802 5:1.615859 \n1 1:0.20150032 2:0.77490335 3:0.70713797 4:-0.43397576 5:-0.38314067 \n1 1:0.17811025 2:0.56751856 3:0.22685514 4:-0.41184133 5:-1.9035919 \n1 1:0.055312371 2:-0.057412818 3:-0.17506788 4:-0.29010194 5:-0.66784668 \n1 1:0.19937395 2:-0.15371845 3:-0.068968304 4:-0.42844215 5:0.27713498 \n1 1:0.20362669 2:0.20773314 3:0.17441279 4:-0.43397576 5:1.0646197 \n1 1:0.2100058 2:0.41278528 3:0.370886 4:-0.43950937 5:1.0706773 \n1 1:-0.10629176 2:0.61050619 3:0.6630648 4:-0.11856007 5:0.065119862 \n1 1:-0.069611875 2:0.56329755 3:0.68000564 4:-0.15729533 5:1.2645197 \n1 1:0.08029722 2:0.37868398 3:0.57660579 4:-0.31223637 5:-0.48006186 \n1 1:0.2100058 2:0.91652929 3:1.007551 4:-0.43950937 5:0.48309252 \n1 1:0.051591223 2:0.82311171 3:0.71064763 4:-0.28456833 5:-0.43160126 \n1 1:-0.14031368 2:0.2612733 3:0.31500149 4:-0.079824812 5:0.28925013 \n1 1:0.039896187 2:0.17474263 3:0.22496533 4:-0.27350111 5:0.23473195 \n1 1:0.072323332 2:0.35280253 3:0.48926937 4:-0.30670276 5:-0.29227705 \n1 1:0.0064058572 2:0.59495511 3:0.63262529 4:-0.24029946 5:2.1913286 \n1 1:0.11910347 2:0.5539669 3:0.27032087 4:-0.35097163 5:0.17415621 \n1 1:-0.050474544 2:0.4606604 3:0.3850596 4:-0.17942977 5:0.54366826 \n1 1:-0.0020996233 2:0.72769471 3:0.60259074 4:-0.22923224 5:-0.74659515 \n1 1:0.20362669 2:0.53752718 3:0.4909567 4:-0.43397576 5:-0.34679522 \n1 1:0.055312371 2:0.16063558 3:-0.039743674 4:-0.29010194 5:-1.7158071 \n1 1:-0.047284989 2:0.092099736 3:0.054072112 4:-0.18496337 5:-0.49217701 \n1 1:0.033517077 2:-0.033197561 3:-0.2767129 4:-0.2679675 5:1.2705772 \n1 1:-0.259922 2:0.063774549 3:0.27349306 4:0.058515403 5:0.44674707 \n1 1:0.42849033 2:1.8624794 3:1.149827 4:-0.63318567 5:0.3922289 \n1 1:1.3975835 2:2.8015427 3:2.8236626 4:-1.3138195 5:-1.8066707 \n1 1:1.7776722 2:2.8128728 3:3.2849123 4:-1.5240967 5:-0.14083768 \n1 1:1.9993463 2:2.8980705 3:3.512095 4:-1.6292352 5:-0.7829406 \n1 1:1.9642612 2:2.8410869 3:3.4958966 4:-1.6126344 5:-1.0555315 \n1 1:2.2635478 2:2.5249556 3:3.1582947 4:-1.7509746 5:-0.29833462 \n1 1:2.235905 2:2.4138764 3:2.890886 4:-1.7343738 5:0.87683487 \n1 1:1.4278843 2:3.040474 3:1.4285746 4:-1.3304204 5:-0.1105498 \n1 1:0.51460832 2:2.6213723 3:0.86824465 4:-0.70512258 5:4.6083009 \n1 1:0.41573211 2:1.2408804 3:0.96111553 4:-0.62211845 5:-1.2312011 \n1 1:1.1684671 2:1.9504541 3:0.8687846 4:-1.1754793 5:0.61635916 \n1 1:1.9562873 2:2.6084871 3:2.626177 4:-1.6071008 5:0.028774414 \n1 1:1.1822885 2:2.6117084 3:1.5034248 4:-1.1865465 5:-3.3816401 \n1 1:-0.088217614 2:0.17529803 3:0.076142444 4:-0.14069451 5:-0.062089207 \n1 1:0.41679529 2:1.083148 3:0.89881915 4:-0.62765206 5:0.76779853 \n1 1:1.0254687 2:1.8682556 3:1.2030118 4:-1.0869416 5:0.96164092 \n1 1:1.860069 2:2.5616117 3:0.98116106 4:-1.5628319 5:1.3372105 \n1 1:1.5405819 2:2.4613072 3:1.1449675 4:-1.3968237 5:-1.0070709 \n1 1:-0.018578992 2:-0.046638139 3:-0.12478532 4:-0.21263142 5:0.37405617 \n1 1:0.049996445 2:0.011789501 3:-0.052297441 4:-0.28456833 5:1.5189378 \n1 1:0.18183139 2:0.54297006 3:0.30507996 4:-0.41184133 5:0.7496258 \n1 1:0.22648517 2:1.4183849 3:1.0052562 4:-0.4561102 5:3.7420677 \n1 1:0.11272436 2:1.2263291 3:0.87850364 4:-0.34543802 5:2.8092012 \n1 1:-0.065890728 2:0.10120823 3:0.17832741 4:-0.16282894 5:-0.14083768 \n1 1:-0.05791684 2:-0.10317743 3:0.024712495 4:-0.16836255 5:0.23473195 \n1 1:0.12282462 2:0.2191743 3:-0.076460068 4:-0.35650524 5:1.7067226 \n1 1:0.12707736 2:0.24572222 3:-0.059046779 4:-0.36203885 5:0.7011652 \n1 1:0.20362669 2:0.26849345 3:0.11616601 4:-0.43397576 5:-1.0434163 \n1 1:0.16428884 2:0.49242904 3:0.31722877 4:-0.3952405 5:-0.6133285 \n1 1:-0.091407169 2:0.38023909 3:0.42501568 4:-0.1351609 5:-0.14689525 \n1 1:2.0168888 2:2.6398114 3:3.4651196 4:-1.6403024 5:-0.6133285 \n1 1:2.1375603 2:2.6977948 3:3.492117 4:-1.6956385 5:0.43463192 \n1 1:0.018100893 2:0.44377637 3:0.30022044 4:-0.25136668 5:0.86471972 \n1 1:0.19299484 2:0.45755018 3:0.34895065 4:-0.42290854 5:0.99798636 \n1 1:0.29080786 2:0.37135275 3:0.28368456 4:-0.51144628 5:1.2766348 \n1 1:0.29187105 2:0.44055507 3:0.19223104 4:-0.51697989 5:0.67693491 \n1 1:0.12707736 2:0.29815158 3:0.11292633 4:-0.36203885 5:-0.94649511 \n1 1:0.24030657 2:0.071994407 3:0.046242881 4:-0.46717741 5:-0.062089207 \n1 1:0.24402772 2:0.64238591 3:0.24109624 4:-0.47271102 5:0.64058946 \n1 1:0.19140006 2:0.71436521 3:0.29326862 4:-0.42290854 5:1.7733559 \n1 1:0.30037653 2:0.66649009 3:0.63012804 4:-0.5225135 5:1.2100015 \n1 1:0.11591392 2:1.0097247 3:1.1509069 4:-0.35097163 5:-1.2493738 \n1 1:0.093587033 2:0.94918656 3:0.67217641 4:-0.3288372 5:-2.4427161 \n1 1:0.090397478 2:0.63272202 3:0.39504862 4:-0.32330359 5:0.47703494 \n1 1:0.28070761 2:0.26405028 3:0.12939471 4:-0.50591267 5:0.93741062 \n1 1:0.19990554 2:0.60384144 3:0.091463439 4:-0.42844215 5:0.18021378 \n1 1:0.030327521 2:0.48332055 3:-0.048922773 4:-0.2624339 5:0.41645919 \n1 1:0.20681624 2:0.034782887 3:-0.10912686 4:-0.43397576 5:0.2710774 \n1 1:0.19671599 2:0.19184882 3:0.1092142 4:-0.42844215 5:0.68299248 \n1 1:-0.02230014 2:0.52619711 3:0.56087984 4:-0.20709781 5:0.846547 \n1 1:0.38862089 2:0.87320841 3:0.7211091 4:-0.59998402 5:-1.1039921 \n1 1:0.47261251 2:0.84510539 3:0.61784424 4:-0.67192093 5:-0.50429216 \n1 1:0.28442875 2:0.4627709 3:0.40328281 4:-0.50591267 5:-0.09237708 \n1 1:0.17651547 2:0.18151846 3:0.10766185 4:-0.40630772 5:-1.0797618 \n1 1:0.15737814 2:0.41867248 3:0.38445216 4:-0.38970689 5:-0.52246488 \n1 1:0.021290448 2:-0.13283557 3:-0.4090674 4:-0.25136668 5:-0.73448 \n1 1:0.17970502 2:0.11298262 3:0.032676713 4:-0.41184133 5:0.8707773 \n1 1:0.23499065 2:0.88742655 3:0.86810966 4:-0.4616438 5:-0.94649511 \n1 1:0.3668256 2:0.78523372 3:0.80986288 4:-0.58338319 5:-0.18929828 \n1 1:0.22010606 2:0.37213031 3:0.41995368 4:-0.45057659 5:1.173656 \n1 1:0.13292488 2:1.3957248 3:0.8789761 4:-0.36757246 5:0.77991368 \n1 1:-0.18018312 2:0.7666835 3:0.30885959 4:-0.035555943 5:-0.45583156 \n1 1:-0.050474544 2:0.51853264 3:0.3718984 4:-0.17942977 5:-0.88591937 \n1 1:-0.28012252 2:0.2772687 3:0.21139916 4:0.080649837 5:1.3796136 \n1 1:0.21479013 2:0.85299201 3:0.77429388 4:-0.44504298 5:0.51338039 \n1 1:-0.1248975 2:-0.17715616 3:-0.15603475 4:-0.096425637 5:-0.10449223 \n1 1:0.2381802 2:0.83066509 3:0.62722582 4:-0.46717741 5:-0.88591937 \n1 1:-0.080775319 2:0.14364047 3:-0.23074992 4:-0.14622811 5:-1.6855192 \n1 1:-0.00050484574 2:0.5033148 3:0.20512228 4:-0.22923224 5:0.94346819 \n1 1:0.14302514 2:-0.3816529 3:-0.30438518 4:-0.37310607 5:0.059062287 \n1 1:0.18183139 2:-0.3965375 3:-0.3633069 4:-0.41184133 5:-0.62544365 \n1 1:0.12282462 2:-0.5437174 3:-0.43950691 4:-0.35650524 5:0.3922289 \n1 1:0.14302514 2:-0.47040515 3:-0.38740203 4:-0.37310607 5:0.28319255 \n1 1:0.15578336 2:-0.50950501 3:-0.43957441 4:-0.38970689 5:-0.21352857 \n1 1:0.11219277 2:-0.54660545 3:-0.44355651 4:-0.34543802 5:0.19838651 \n1 1:0.14887266 2:-0.45696457 3:-0.38220504 4:-0.37863968 5:0.25290468 \n1 1:0.16907317 2:-0.45229924 3:-0.36641159 4:-0.40077411 5:-0.20141342 \n1 1:0.20150032 2:-0.527722 3:-0.42067626 4:-0.43397576 5:0.10752288 \n1 1:0.2030951 2:-0.56060143 3:-0.4732536 4:-0.43397576 5:0.14992591 \n1 1:0.18448936 2:-0.57448632 3:-0.47082384 4:-0.41737494 5:-0.043916483 \n1 1:0.27007575 2:-0.52749984 3:-0.47399603 4:-0.49484546 5:0.065119862 \n1 1:0.44231174 2:-0.62102849 3:-0.59656399 4:-0.64425289 5:-0.056031632 \n1 1:0.37160993 2:-0.54282876 3:-0.50463802 4:-0.58338319 5:0.20444408 \n1 1:0.26157027 2:-0.56826589 3:-0.51982402 4:-0.48931185 5:0.18627136 \n1 1:0.13451966 2:-0.60414446 3:-0.5393971 4:-0.36757246 5:-0.11660738 \n1 1:0.1175087 2:-0.61180892 3:-0.50004847 4:-0.35097163 5:0.21655923 \n1 1:0.22170083 2:-0.53083221 3:-0.38490478 4:-0.45057659 5:0.095407735 \n1 1:0.28230238 2:-0.57082071 3:-0.47460347 4:-0.50591267 5:-0.21352857 \n1 1:0.20681624 2:-0.58292834 3:-0.44193667 4:-0.43397576 5:0.18021378 \n1 1:0.23180109 2:-0.54949351 3:-0.45260063 4:-0.4616438 5:0.19838651 \n1 1:0.33280367 2:-0.61602993 3:-0.56052253 4:-0.55018154 5:-0.2559316 \n1 1:0.30090812 2:-0.51583653 3:-0.40380292 4:-0.5225135 5:0.32559557 \n1 1:0.21372695 2:-0.52483394 3:-0.46218469 4:-0.44504298 5:-0.1832407 \n1 1:0.2312695 2:-0.40820082 3:-0.38436483 4:-0.4616438 5:0.2953077 \n1 1:0.25200161 2:-0.4311942 3:-0.40569273 4:-0.47824463 5:0.53155311 \n1 1:0.32217182 2:-0.4765145 3:-0.32139351 4:-0.54464793 5:-0.26804675 \n1 1:0.26741779 2:-0.42208571 3:-0.29378872 4:-0.49484546 5:0.18627136 \n1 1:0.28017601 2:-0.46518443 3:-0.34123656 4:-0.50591267 5:0.071177436 \n1 1:0.23552224 2:-0.44108025 3:-0.35972975 4:-0.4616438 5:0.022716839 \n1 1:0.20203191 2:-0.53971855 3:-0.47143128 4:-0.43397576 5:0.2953077 \n1 1:0.1244194 2:-0.65013123 3:-0.56943165 4:-0.35650524 5:-0.11660738 \n1 1:0.16482043 2:-0.61958446 3:-0.51131986 4:-0.3952405 5:-0.062089207 \n1 1:0.17492069 2:-0.57026532 3:-0.46825909 4:-0.40630772 5:0.25896225 \n1 1:0.26210187 2:-0.47329321 3:-0.39867342 4:-0.48931185 5:-0.1105498 \n1 1:0.28921309 2:-0.44618989 3:-0.32942522 4:-0.51144628 5:0.13175318 \n1 1:0.22116924 2:-0.46262961 3:-0.34987572 4:-0.45057659 5:0.13781076 \n1 1:0.19671599 2:-0.55526963 3:-0.44834854 4:-0.42844215 5:-0.12266495 \n1 1:0.29240264 2:-0.44574557 3:-0.46157725 4:-0.51697989 5:0.63453188 \n1 1:0.43221148 2:-0.45585378 3:-0.43505235 4:-0.63871928 5:0.40434404 \n1 1:0.33227208 2:-0.41464341 3:-0.38551222 4:-0.55018154 5:0.25896225 \n1 1:0.27592327 2:-0.41875334 3:-0.26989607 4:-0.50037906 5:0.30742285 \n1 1:0.19512121 2:-0.489844 3:-0.34123656 4:-0.42290854 5:0.034831988 \n1 1:0.13451966 2:-0.53227624 3:-0.37187855 4:-0.36757246 5:0.28925013 \n1 1:0.14887266 2:-0.38720685 3:-0.23587941 4:-0.37863968 5:0.10752288 \n1 1:0.19777917 2:-0.558602 3:-0.47669576 4:-0.42844215 5:-0.11660738 \n1 1:0.15950451 2:-0.58592748 3:-0.43802206 4:-0.38970689 5:0.2226168 \n1 1:0.2100058 2:-0.41153319 3:-0.31511663 4:-0.43950937 5:0.15598348 \n1 1:0.27592327 2:-0.53061005 3:-0.47581835 4:-0.50037906 5:-0.12872253 \n1 1:0.21638491 2:-0.53372027 3:-0.50403058 4:-0.44504298 5:0.28925013 \n1 1:0.27539168 2:-0.38387448 3:-0.30640998 4:-0.50037906 5:0.046947138 \n1 1:0.38330497 2:-0.48195738 3:-0.42823552 4:-0.59445041 5:-0.31650734 \n1 1:0.43221148 2:-0.53583078 3:-0.50895759 4:-0.63871928 5:-0.37102552 \n1 1:0.35672534 2:-0.41108887 3:-0.33549963 4:-0.57231598 5:-0.35285279 \n1 1:0.23233268 2:-0.44663421 3:-0.27482309 4:-0.4616438 5:0.36194102 \n1 1:0.28549194 2:-0.33266699 3:-0.2136066 4:-0.51144628 5:0.16204106 \n1 1:0.32748775 2:-0.30089834 3:-0.14665317 4:-0.54464793 5:-0.2559316 \n1 1:0.21797969 2:-0.43630385 3:-0.2929788 4:-0.44504298 5:0.34982587 \n1 1:0.17917343 2:-0.42730643 3:-0.30121299 4:-0.41184133 5:-0.12872253 \n1 1:0.11219277 2:-0.61303079 3:-0.52259125 4:-0.34543802 5:0.30742285 \n1 1:0.1456831 2:-0.43908082 3:-0.32206845 4:-0.37863968 5:0.21050165 \n1 1:0.17332591 2:-0.40631247 3:-0.2593671 4:-0.40630772 5:-0.14083768 \n1 1:0.14089877 2:-0.54982675 3:-0.43903446 4:-0.37310607 5:0.12569561 \n1 1:0.18183139 2:-0.4850676 3:-0.43525483 4:-0.41184133 5:0.22867438 \n1 1:-1.2369891 2:0.35380224 3:0.31446154 4:1.6023922 5:0.33165315 \n1 1:-0.043563841 2:2.1679471 3:0.31142434 4:-0.18496337 5:1.8823923 \n1 1:0.75276178 2:0.88487173 3:0.039965997 4:-0.89326527 5:0.81020155 \n1 1:0.24828046 2:-0.58459453 3:-0.46049735 4:-0.47271102 5:0.32559557 \n1 1:0.085613145 2:-0.64346648 3:-0.59318932 4:-0.31776998 5:0.39828647 \n1 1:-1.2231677 2:-0.095068655 3:-0.35972975 4:1.5747242 5:0.65270461 \n1 1:-1.2869588 2:0.028784613 3:-0.10116264 4:1.7075308 5:1.5128802 \n1 1:-0.99511448 2:0.11564852 3:0.013373609 4:1.1320355 5:0.68299248 \n1 1:-1.08708 2:-0.16116076 3:-0.059114272 4:1.2980437 5:0.36194102 \n1 1:-0.64426341 2:0.84155085 3:0.64038703 4:0.56207378 5:-1.9217646 \n1 1:-0.55867701 2:0.062663757 3:0.087548824 4:0.4403344 5:-0.66784668 \n1 1:-1.000962 2:0.27615791 3:-0.0054570417 4:1.1375691 5:-1.2554314 \n1 1:-1.2077515 2:0.2325038 3:-0.23263973 4:1.5415225 5:2.0217165 \n1 1:-1.029668 2:0.39601233 3:0.11738089 4:1.1929052 5:1.7491256 \n1 1:-0.92388108 2:0.29548568 3:0.21828348 4:1.0047625 5:0.2953077 \n1 1:-0.83138398 2:0.46665867 3:0.47077619 4:0.84982143 5:-0.0015134599 \n1 1:-1.2300784 2:0.52564171 3:0.50492783 4:1.5857914 5:-0.50429216 \n1 1:-1.3209807 2:0.14019701 3:0.14147603 4:1.7850013 5:-0.12266495 \n1 1:-0.91431241 2:0.51975452 3:0.27369554 4:0.98816165 5:-2.3215646 \n1 1:-0.81171506 2:0.82322279 3:0.57566089 4:0.81661978 5:0.58607129 \n1 1:-0.78938817 2:0.85810165 3:0.61791174 4:0.78341813 5:0.76779853 \n1 1:-0.88348005 2:0.61272777 3:0.39552108 4:0.93282556 5:-0.50429216 \n1 1:-1.213599 2:0.25249805 3:-0.059789206 4:1.5525897 5:-1.4008132 \n1 1:0.17598388 2:-0.63835684 3:-0.53561747 4:-0.40630772 5:-0.09237708 \n1 1:0.13239329 2:-0.59103712 3:-0.47305112 4:-0.36757246 5:0.33165315 \n1 1:-0.071206653 2:-0.67168059 3:-0.66358491 4:-0.15729533 5:0.21655923 \n1 1:-1.3810507 2:0.47543393 3:0.21004929 4:1.9233415 5:-2.5880979 \n1 1:-1.5027854 2:-0.011759282 3:-0.3327324 4:2.2221564 5:-1.746095 \n1 1:-1.029668 2:0.18162954 3:-0.057494431 4:1.1929052 5:-1.461389 \n1 1:-0.82500487 2:0.10054175 3:0.19891289 4:0.83875421 5:-0.23775887 \n1 1:-0.78407224 2:0.56696316 3:0.37412568 4:0.77235091 5:-1.8369586 \n1 1:-0.90421216 2:0.6013977 3:0.21268153 4:0.97156082 5:-1.176683 \n1 1:-0.83085239 2:0.42678126 3:0.14343334 4:0.84982143 5:0.20444408 \n1 1:-1.0333891 2:0.68093038 3:0.35738732 4:1.1984388 5:1.6098014 \n1 1:-1.31407 2:0.1706327 3:-0.024017719 4:1.7684005 5:2.2155589 \n1 1:-1.0721954 2:0.31947878 3:0.11967567 4:1.2703757 5:0.7738561 \n1 1:-0.92334949 2:0.64060865 3:0.50371295 4:1.0047625 5:-0.57698306 \n1 1:-0.80639913 2:0.54085956 3:0.57512094 4:0.81108617 5:0.27713498 \n1 1:-0.80799391 2:0.47421206 3:0.59219676 4:0.81108617 5:1.2705772 \n1 1:-0.88985916 2:0.33303044 3:0.40132551 4:0.94389278 5:1.4886499 \n1 1:-0.99086174 2:0.20873286 3:0.26957845 4:1.1209683 5:-0.29227705 \n1 1:-1.0200993 2:0.30359446 3:0.21153415 4:1.1763043 5:0.33771072 \n1 1:-0.99086174 2:0.38879218 3:0.44593863 4:1.1209683 5:0.78597125 \n1 1:-1.1056857 2:0.41411823 3:0.35198785 4:1.336779 5:-0.72842242 \n1 1:-0.92334949 2:0.66526822 3:0.32283072 4:1.0047625 5:-2.6607888 \n1 1:-0.94195523 2:0.58895683 3:0.27092831 4:1.0324305 5:1.9914286 \n1 1:-1.1296074 2:0.4265591 3:0.50567026 4:1.3810479 5:-0.73448 \n1 1:-0.88135368 2:0.45221838 3:0.44296892 4:0.93282556 5:-1.7097495 \n1 1:-0.86806386 2:0.53552776 3:0.58072289 4:0.91069113 5:-0.41342854 \n1 1:-0.79629887 2:0.51997667 3:0.42353083 4:0.79448534 5:-1.5159071 \n1 1:-0.73835529 2:0.27615791 3:0.14883281 4:0.700414 5:1.4099014 \n1 1:-0.86646909 2:0.34458267 3:0.21085921 4:0.90515752 5:1.4523045 \n1 1:-0.8510529 2:0.28937633 3:0.3993682 4:0.88302308 5:-0.69207698 \n1 1:-0.79895683 2:0.38834786 3:0.30224524 4:0.79448534 5:-1.6976344 \n1 1:-0.85371087 2:0.40134413 3:0.35772479 4:0.88855669 5:-0.60121335 \n1 1:-0.91324923 2:0.50964631 3:0.34118891 4:0.98262804 5:-1.3523526 \n1 1:-0.93185497 2:0.60561871 3:0.42724296 4:1.0158297 5:-2.5517524 \n1 1:-0.98448263 2:0.61283885 3:0.79481186 4:1.109901 5:0.7980864 \n1 1:-0.8797589 2:0.70703398 3:0.9583483 4:0.92729195 5:0.50732281 \n1 1:-0.26098519 2:-0.86717992 3:-0.78304817 4:0.058515403 5:0.24078953 \n1 1:-0.59269893 2:-0.89450539 3:-0.81956209 4:0.48460326 5:0.071177436 \n1 1:-0.40185721 2:-0.84563056 3:-0.74268714 4:0.23005727 5:0.077235011 \n1 1:0.24668568 2:-0.45529838 3:-0.60722794 4:-0.47271102 5:-0.1832407 \n1 1:0.29718697 2:-0.45196601 3:-0.58232289 4:-0.51697989 5:0.54366826 \n1 1:0.99676275 2:-0.10695413 3:-0.23783672 4:-1.0648071 5:-0.0075710346 \n1 1:0.751167 2:-0.14050003 3:-0.28454213 4:-0.89326527 5:0.58001371 \n1 1:1.1094604 2:0.012900292 3:-0.25713982 4:-1.1367441 5:-0.062089207 \n1 1:1.0228108 2:-0.045749506 3:-0.30492513 4:-1.081408 5:0.053004712 \n1 1:0.45613314 2:-0.43108312 3:-0.55822775 4:-0.66085371 5:0.12569561 \n1 1:0.4874971 2:-0.50517293 3:-0.5383847 4:-0.68298815 5:-0.14083768 \n1 1:1.0206844 2:1.0273863 3:0.95315131 4:-1.081408 5:1.2887499 \n1 1:0.8723701 2:-0.46285177 3:-0.43073277 4:-0.98180301 5:-0.33468007 \n1 1:2.7839769 2:3.1699923 3:1.3371211 4:-1.9557181 5:-0.88591937 \n1 1:0.77562026 2:-0.60347799 3:-0.51590941 4:-0.9098661 5:0.089350161 \n1 1:1.480512 2:2.1938286 3:1.2788068 4:-1.363622 5:1.2705772 \n1 1:3.5829604 2:2.7739951 3:1.2709776 4:-2.2213313 5:-1.9702252 \n0.5430260273262797 1:1.8398685 2:2.3475622 3:0.30069289 4:-1.5517647 5:2.4457467 \n1 1:1.0866019 2:1.0552672 3:1.0316461 4:-1.1256768 5:1.331153 \n1 1:1.1195606 2:1.0420487 3:1.0258417 4:-1.1478113 5:1.3432681 \n0.2615191091468752 1:1.7638508 2:2.4606407 3:0.31500149 4:-1.5130294 5:2.0701771 \n0.2104635472475249 1:4.8040285 2:-0.77787227 3:-0.70630821 4:-2.536747 5:0.21655923 \n1 1:3.4176352 2:2.9586086 3:0.37675792 4:-2.1715289 5:-2.4730039 \n1 1:1.4746644 2:1.567231 3:0.38782683 4:-1.3580884 5:-0.77082545 \n1 1:2.9551497 2:2.8715226 3:0.31682381 4:-2.0165878 5:-1.8793616 \n0.2071661039888087 1:3.6674837 2:2.3691115 3:0.47219355 4:-2.2489994 5:-1.2554314 \n1 1:1.8749536 2:2.1056317 3:0.4991909 4:-1.5683655 5:0.15598348 \n1 1:2.0567583 2:2.4959639 3:0.24568579 4:-1.6569033 5:3.5906283 \n0.4944466559944294 1:3.9779337 2:1.9668939 3:0.22192813 4:-2.3320035 5:-0.1832407 \n0.6721242606558806 1:4.8396452 2:-0.75376809 3:-0.67620617 4:-2.5422806 5:-0.09237708 \n1 1:1.7978727 2:2.4788577 3:0.37439565 4:-1.5296303 5:2.0398892 \n1 1:0.91808706 2:-0.47495939 3:-0.41790903 4:-1.0094711 5:-0.49823458 \n1 1:1.0286583 2:-0.44263536 3:-0.38861691 4:-1.0869416 5:-0.21958615 \n1 1:1.1604933 2:0.99528441 3:0.98527816 4:-1.1699457 5:0.10752288 \n1 1:1.1652776 2:0.99994974 3:0.99749446 4:-1.1754793 5:0.56184099 \n1 1:1.138698 2:0.95907261 3:0.95159896 4:-1.1588785 5:0.16809863 \n1 1:1.2195 2:0.9303031 3:0.94316229 4:-1.208681 5:0.3679986 \n1 1:1.1567721 2:0.96918081 3:0.94788683 4:-1.1699457 5:-1.3523526 \n1 1:-0.62565767 2:-0.77065213 3:-0.67532875 4:0.53440574 5:0.18021378 \n1 1:-0.57409319 2:-0.76976349 3:-0.67505878 4:0.46246883 5:0.089350161 \n-1 1:1.2955178 2:0.44766414 3:0.29927553 4:-1.2529498 5:-0.19535585 \n-1 1:1.2928598 2:0.31581317 3:0.20923937 4:-1.2529498 5:-0.34679522 \n-1 1:1.2264107 2:0.42833636 3:0.20971183 4:-1.2142146 5:1.6219166 \n-1 1:1.2646854 2:0.42900284 3:0.39363126 4:-1.236349 5:-0.57092548 \n-1 1:1.1604933 2:0.29837374 3:0.19756302 4:-1.1699457 5:1.3190378 \n-1 1:1.1971731 2:0.39890039 3:0.02100036 4:-1.1976137 5:0.82837427 \n-1 1:0.86599099 2:0.36191102 3:0.24332352 4:-0.9762694 5:0.022716839 \n-1 1:0.78306255 2:0.19173775 3:0.19182608 4:-0.91539971 5:-0.34679522 \n-1 1:1.1583669 2:0.43744485 3:0.36892869 4:-1.1699457 5:0.61635916 \n-1 1:1.5687563 2:0.47265695 3:0.09868523 4:-1.4134245 5:0.046947138 \n-1 1:1.4342634 2:-0.42652888 3:-0.30958217 4:-1.335954 5:0.022716839 \n-1 1:1.6309526 2:-0.37387736 3:-0.29014408 4:-1.4466261 5:0.17415621 \n-1 1:1.5575929 2:0.19018264 3:0.32148085 4:-1.4078909 5:0.2953077 \n-1 1:1.5544033 2:-0.57526388 3:-0.45813508 4:-1.4023573 5:0.046947138 \n-1 1:1.6888962 2:0.18673918 3:0.3484782 4:-1.4742942 5:0.059062287 \n-1 1:1.690491 2:-0.59125928 3:-0.46778664 4:-1.4742942 5:0.053004712 \n-1 1:0.58531013 2:1.5554566 3:0.47523075 4:-0.76599228 5:-0.35285279 \n-1 1:0.67621245 2:1.548903 3:0.34274126 4:-0.83239558 5:-1.2978344 \n-1 1:1.3736619 2:0.078659157 3:0.18588667 4:-1.3027523 5:0.18021378 \n-1 1:1.1658092 2:-0.1257265 3:-0.061814007 4:-1.1754793 5:0.034831988 \n-1 1:1.2093998 2:0.0033474841 3:0.044150586 4:-1.2031474 5:-0.037858908 \n-1 1:1.2008943 2:0.1759645 3:0.10124998 4:-1.1976137 5:-0.086319506 \n-1 1:0.89469698 2:0.1125383 3:-0.28676941 4:-0.99287023 5:0.046947138 \n-1 1:0.41201096 2:-0.34566325 3:-0.23034495 4:-0.62211845 5:0.3437683 \n-1 1:0.36523082 2:-0.056524185 3:0.029369538 4:-0.57784958 5:0.010601689 \n-1 1:0.17332591 2:-0.35343879 3:-0.26058199 4:-0.40630772 5:0.33165315 \n-1 1:0.37001515 2:-0.26424222 3:-0.25268526 4:-0.58338319 5:-0.14083768 \n-1 1:0.37639426 2:-0.19404019 3:-0.23061493 4:-0.5889168 5:-0.45583156 \n-1 1:0.030327521 2:-0.39409376 3:-0.5312304 4:-0.2624339 5:0.17415621 \n-1 1:-0.069611875 2:-0.51939106 3:-0.60344831 4:-0.15729533 5:0.034831988 \n-1 1:-0.11160769 2:-0.41608744 3:-0.25875966 4:-0.11302646 5:0.2468471 \n-1 1:-0.083964874 2:-0.46807249 3:-0.60520314 4:-0.14069451 5:0.16204106 \n-1 1:0.084018367 2:-0.13472392 3:-0.054524723 4:-0.31776998 5:-0.062089207 \n-1 1:0.054780778 2:-0.34310843 3:-0.18762165 4:-0.29010194 5:0.24078953 \n-1 1:0.057438741 2:-0.33910958 3:-0.18336957 4:-0.29010194 5:0.31348042 \n-1 1:-0.075459393 2:-0.35132828 3:-0.52299621 4:-0.15176172 5:0.15598348 \n-1 1:-0.15041394 2:-0.39664858 3:-0.57354875 4:-0.068757595 5:-0.031801333 \n-1 1:-0.19240975 2:-0.37720973 3:-0.53001552 4:-0.024488726 5:0.059062287 \n-1 1:-0.18230949 2:-0.44496802 3:-0.57584352 4:-0.035555943 5:0.083292586 \n-1 1:-0.28012252 2:-0.53027682 3:-0.60837533 4:0.080649837 5:0.22867438 \n-1 1:-0.27002226 2:-0.52305667 3:-0.65643061 4:0.06958262 5:0.23473195 \n-1 1:-0.15147713 2:-0.33377778 3:-0.49518894 4:-0.068757595 5:0.083292586 \n-1 1:-0.19347294 2:-0.22136566 3:-0.1870817 4:-0.018955117 5:0.21655923 \n-1 1:-0.16370375 2:-0.63369152 3:-0.68579022 4:-0.057690377 5:0.022716839 \n-1 1:-0.18762542 2:-0.43252715 3:-0.55890269 4:-0.030022334 5:0.15598348 \n-1 1:0.99038364 2:0.14397371 3:-0.19855558 4:-1.0592735 5:0.13781076 \n-1 1:1.1317873 2:0.35180282 3:-0.19592334 4:-1.1533449 5:0.010601689 \n-1 1:0.25200161 2:-0.62669353 3:-0.52799072 4:-0.47824463 5:-0.013628609 \n-1 1:0.28442875 2:-0.61814044 3:-0.53217531 4:-0.50591267 5:-0.17112555 \n-1 1:0.10262411 2:-0.42930586 3:-0.4060302 4:-0.33437081 5:0.32559557 \n-1 1:0.080828812 2:-0.22714178 3:-0.11520126 4:-0.31223637 5:0.30136527 \n-1 1:0.20787943 2:-0.42752859 3:-0.48594235 4:-0.43950937 5:-0.080261931 \n-1 1:0.20681624 2:-0.56071251 3:-0.4731861 4:-0.43397576 5:-0.11660738 \n-1 1:0.32642456 2:0.53652747 3:0.10098 4:-0.54464793 5:-0.14689525 \n-1 1:0.58212057 2:0.84044006 3:0.80095376 4:-0.76045867 5:1.6037438 \n-1 1:0.34609349 2:-0.20248221 3:-0.048720293 4:-0.56124876 5:0.34982587 \n-1 1:0.31313475 2:-0.72111082 3:-0.59831882 4:-0.53358072 5:0.14386833 \n-1 1:0.20522147 2:-0.71833384 3:-0.65811794 4:-0.43397576 5:0.12569561 \n-1 1:0.14887266 2:-0.27790496 3:-0.16507886 4:-0.37863968 5:0.2226168 \n-1 1:0.37160993 2:0.81511401 3:0.6071128 4:-0.58338319 5:0.81625912 \n-1 1:0.17332591 2:-0.58659395 3:-0.55971261 4:-0.40630772 5:-0.1832407 \n-1 1:0.10687685 2:-0.43552629 3:-0.36040468 4:-0.33990442 5:0.16809863 \n-1 1:0.2030951 2:-0.55771337 3:-0.474266 4:-0.43397576 5:0.016659264 \n-1 1:0.10847162 2:-0.13294665 3:-0.049935173 4:-0.33990442 5:0.37405617 \n-1 1:-0.26257997 2:-0.77976062 3:-0.67836595 4:0.058515403 5:0.089350161 \n-1 1:-0.35348229 2:-0.81597243 3:-0.83825775 4:0.16918757 5:0.14992591 \n-1 1:-0.51030209 2:-0.59659108 3:-0.48358008 4:0.37393109 5:0.065119862 \n-1 1:-0.45342169 2:-0.58292834 3:-0.48452499 4:0.29646057 5:-0.31044977 \n-1 1:-0.44119506 2:-0.61258648 3:-0.51442455 4:0.27985975 5:0.61635916 \n-1 1:-0.27002226 2:-0.33999821 3:-0.35061814 4:0.06958262 5:-0.20141342 \n-1 1:-0.40770473 2:-0.5378302 3:-0.4345124 4:0.23559088 5:-0.207471 \n-1 1:-0.46458513 2:-0.55738013 3:-0.45347804 4:0.3130614 5:-0.1105498 \n-1 1:-0.44810576 2:-0.48828889 3:-0.39010176 4:0.29092696 5:-0.16506798 \n-1 1:-0.2104839 2:-0.5357197 3:-0.61033264 4:-0.0023542915 5:0.040889563 \n-1 1:-0.06642232 2:-0.49384285 3:-0.37707554 4:-0.16282894 5:0.38011375 \n-1 1:-0.096191502 2:-0.4983971 3:-0.37025871 4:-0.12962729 5:0.19232893 \n-1 1:-0.10788654 2:-0.4525214 3:-0.36175455 4:-0.11856007 5:-0.19535585 \n-1 1:-0.12117635 2:-0.44696744 3:-0.35676004 4:-0.10195925 5:-0.10449223 \n-1 1:-0.078117356 2:-0.46729493 3:-0.32537562 4:-0.15176172 5:0.016659264 \n-1 1:-0.019110584 2:-0.45029982 3:-0.32942522 4:-0.21263142 5:-0.0015134599 \n-1 1:0.22542198 2:-0.051192385 3:-0.0039046942 4:-0.4561102 5:-0.29227705 \n-1 1:0.37107834 2:-0.29723273 3:-0.55323324 4:-0.58338319 5:-0.20141342 \n-1 1:0.44018537 2:-0.24991301 3:-0.19916302 4:-0.64425289 5:0.84048942 \n-1 1:0.32801934 2:-0.082516709 3:-0.11628116 4:-0.55018154 5:0.022716839 \n-1 1:-0.19028338 2:-0.55260373 3:-0.42553578 4:-0.024488726 5:-0.11660738 \n-1 1:-0.20569956 2:-0.59681324 3:-0.49512145 4:-0.0078879001 5:0.44674707 \n-1 1:-0.019110584 2:-0.6833439 3:-0.70401343 4:-0.21263142 5:0.12569561 \n-1 1:0.0888027 2:-0.53616401 3:-0.42688565 4:-0.32330359 5:-0.019686184 \n-1 1:0.1531254 2:-0.51072688 3:-0.42519832 4:-0.38417328 5:-0.15295283 \n-1 1:0.14249355 2:-0.57270906 3:-0.55559551 4:-0.37310607 5:-0.34073764 \n-1 1:0.063286259 2:-0.60114532 3:-0.55012855 4:-0.29563555 5:0.13781076 \n-1 1:0.17332591 2:0.49298444 3:-0.00012506541 4:-0.40630772 5:0.61030158 \n-1 1:0.053717593 2:-0.54993783 3:-0.48533491 4:-0.28456833 5:0.19838651 \n-1 1:0.20787943 2:-0.25779963 3:-0.20132281 4:-0.43950937 5:0.45280464 \n-1 1:0.24721728 2:-0.27701632 3:-0.27428314 4:-0.47271102 5:0.50126524 \n-1 1:0.26050709 2:0.10409629 3:0.070877961 4:-0.48377824 5:0.016659264 \n-1 1:0.24987524 2:0.11587068 3:0.090721012 4:-0.47824463 5:-1.1161072 \n-1 1:0.024480003 2:-0.59436949 3:-0.71022282 4:-0.25690029 5:0.11963803 \n-1 1:-0.016984214 2:-0.58292834 3:-0.50632535 4:-0.21263142 5:0.48309252 \n-1 1:0.024480003 2:-0.39509348 3:-0.24843318 4:-0.25690029 5:0.16809863 \n-1 1:0.021822041 2:-0.63669066 3:-0.56059002 4:-0.25690029 5:0.36194102 \n-1 1:0.04893326 2:-0.64835397 3:-0.59406673 4:-0.28456833 5:0.38011375 \n-1 1:0.016506115 2:-0.69267455 3:-0.60095106 4:-0.25136668 5:0.23473195 \n-1 1:0.23552224 2:-0.20192681 3:-0.31255188 4:-0.4616438 5:0.13781076 \n-1 1:0.40882141 2:0.5747387 3:0.45241799 4:-0.61658484 5:-1.2130284 \n-1 1:0.17013636 2:-0.4711827 3:-0.4131845 4:-0.40077411 5:-0.18929828 \n-1 1:0.20362669 2:-0.45385435 3:-0.40751505 4:-0.43397576 5:-0.28621947 \n-1 1:0.23711702 2:-0.50339566 3:-0.42580576 4:-0.46717741 5:0.73145308 \n-1 1:0.49068666 2:0.6787088 3:0.51282456 4:-0.68852176 5:-1.6249435 \n-1 1:0.066475814 2:-0.55782445 3:-0.54925113 4:-0.30116916 5:0.17415621 \n-1 1:-0.017515807 2:-0.58437237 3:-0.46184722 4:-0.21263142 5:0.26501983 \n-1 1:0.12122984 2:-0.54671653 3:-0.44639124 4:-0.35650524 5:0.49520767 \n-1 1:0.19990554 2:-0.52572257 3:-0.44564881 4:-0.42844215 5:0.095407735 \n-1 1:0.09092907 2:-0.45996371 3:-0.37930283 4:-0.32330359 5:0.87683487 \n-1 1:0.28283398 2:-0.85240639 3:-0.81200283 4:-0.50591267 5:0.11963803 \n-1 1:0.22701676 2:-0.63024806 3:-0.57861075 4:-0.4561102 5:-0.2801619 \n-1 1:0.49812895 2:-0.35377203 3:-0.2665889 4:-0.69405536 5:-0.31650734 \n-1 1:0.58371535 2:-0.30867389 3:-0.20516993 4:-0.76045867 5:0.7496258 \n-1 1:0.4019107 2:0.11620391 3:0.14194848 4:-0.61105124 5:0.16809863 \n-1 1:0.49547099 2:-0.76843054 3:-0.79371213 4:-0.68852176 5:0.21655923 \n-1 1:0.33227208 2:-0.46140774 3:-0.37660309 4:-0.55018154 5:-0.11660738 \n-1 1:0.30197131 2:-0.46951651 3:-0.37808794 4:-0.5225135 5:-0.1832407 \n-1 1:0.28602353 2:-0.18659789 3:-0.26361919 4:-0.51144628 5:-0.031801333 \n-1 1:0.31791908 2:-0.17337947 3:-0.20591235 4:-0.53911432 5:-0.74053757 \n-1 1:0.2456225 2:-0.45374327 3:-0.43167768 4:-0.47271102 5:0.91923789 \n-1 1:0.29718697 2:-0.43852543 3:-0.50592039 4:-0.51697989 5:-0.17718313 \n-1 1:0.16322566 2:-0.41708715 3:-0.37127111 4:-0.3952405 5:0.47703494 \n-1 1:-0.10948132 2:-0.41753147 3:-0.41790903 4:-0.11302646 5:-0.17718313 \n-1 1:-0.5661193 2:-0.70755916 3:-0.75173125 4:0.45140161 5:0.14992591 \n-1 1:-0.51455483 2:-0.61325295 3:-0.5037606 4:0.3794647 5:0.2226168 \n-1 1:-0.27746456 2:0.25038754 3:-0.020373077 4:0.075116229 5:0.52549554 \n-1 1:-0.41886817 2:-0.41875334 3:-0.34980822 4:0.2521917 5:-0.207471 \n-1 1:-0.44970054 2:-0.56049035 3:-0.45948495 4:0.29092696 5:-0.025743759 \n-1 1:-0.42205773 2:-0.55260373 3:-0.46123978 4:0.25772531 5:-0.23775887 \n-1 1:-0.47521698 2:-0.3976483 3:-0.52589843 4:0.32412862 5:1.6643196 \n-1 1:-0.44438461 2:-0.55582502 3:-0.62450624 4:0.28539336 5:0.21655923 \n-1 1:-0.27480659 2:0.2719369 3:-0.021857931 4:0.075116229 5:0.23473195 \n-1 1:-0.39175695 2:-0.61114245 3:-0.50234324 4:0.21899005 5:0.16809863 \n-1 1:-0.37261962 2:-0.57737438 3:-0.57874574 4:0.19132201 5:0.11358046 \n-1 1:0.49812895 2:-0.24602524 3:-0.41750407 4:-0.69405536 5:-0.025743759 \n-0.04016352200850195 1:0.86599099 2:1.9903316 3:2.4328085 4:-0.9762694 5:-0.24987402 \n-1 1:0.76126726 2:0.34824829 3:-0.1514452 4:-0.89879888 5:0.15598348 \n-0.1282682351219263 1:1.0153685 2:3.0244786 3:3.9404754 4:-1.0758744 5:-0.91014966 \n-1 1:1.0222792 2:2.7816595 3:3.4923869 4:-1.081408 5:-0.82534362 \n-0.1358526663752014 1:0.72777693 2:1.7559545 3:2.2844581 4:-0.87666445 5:-0.71630727 \n-1 1:1.0834123 2:0.043447062 3:-0.26301175 4:-1.1201432 5:-0.15295283 \n-1 1:1.6538111 2:1.0103912 3:0.39180894 4:-1.4576933 5:-1.219086 \n-1 1:1.5400503 2:0.79089875 3:0.38904171 4:-1.3968237 5:-0.75265272 \n-1 1:1.8903698 2:1.4878094 3:0.22408791 4:-1.5794327 5:-0.17718313 \n-1 1:1.7069704 2:1.2429909 3:0.23265957 4:-1.4853614 5:0.44068949 \n-1 1:1.9052544 2:1.2081121 3:0.17475026 4:-1.5849663 5:-0.61938608 \n-1 1:1.9865881 2:1.7747269 3:0.36211186 4:-1.6237016 5:4.4992645 \n-1 1:1.6798592 2:-0.31356137 3:-0.76118032 4:-1.4687606 5:0.010601689 \n-1 1:1.1222186 2:-0.54349524 3:-0.81773977 4:-1.1478113 5:0.046947138 \n-1 1:0.90267087 2:-0.01997914 3:0.072970256 4:-0.99840384 5:-0.12872253 \n-1 1:1.1285977 2:0.075326782 3:0.078504712 4:-1.1533449 5:-0.28621947 \n-1 1:1.4326686 2:-0.76009961 3:-0.77953852 4:-1.335954 5:0.20444408 \n-1 1:1.5910832 2:-0.73799485 3:-0.72500387 4:-1.4244917 5:-0.36496794 \n-1 1:1.5995887 2:-0.74032752 3:-0.75949299 4:-1.4300253 5:0.16204106 \n-1 1:1.8329578 2:-0.41197751 3:-0.3235533 4:-1.5517647 5:-0.013628609 \n-1 1:1.9142915 2:-0.42775075 3:-0.31302433 4:-1.5905 5:-0.30439219 \n-1 1:1.7447134 2:-0.80741933 3:-0.77704126 4:-1.5019622 5:0.065119862 \n-1 1:1.7542821 2:-0.82641387 3:-0.78122585 4:-1.5074958 5:0.034831988 \n-0.8841823616701654 1:1.8382737 2:1.4200511 3:1.5736854 4:-1.5517647 5:1.7127802 \n-1 1:1.9429975 2:0.17240997 3:0.22152317 4:-1.6015672 5:-0.40737096 \n-1 1:1.9993463 2:0.16541198 3:0.22543778 4:-1.6292352 5:-0.60121335 \n-1 1:1.5506822 2:-0.70622621 3:-0.71440741 4:-1.4023573 5:-0.15295283 \n-1 1:1.5586561 2:0.084102036 3:0.1468755 4:-1.4078909 5:-0.031801333 \n-1 1:1.6096889 2:0.087656569 3:0.25230014 4:-1.4355589 5:-0.47400429 \n-1 1:1.0982969 2:-0.010426332 3:-0.31113452 4:-1.1312104 5:0.010601689 \n-1 1:0.98400453 2:0.043335983 3:0.17259047 4:-1.0592735 5:-0.1590104 \n-1 1:1.049922 2:-0.70722592 3:-0.72297907 4:-1.1035424 5:0.13781076 \n-1 1:0.87077532 2:-0.13727874 3:-0.39064171 4:-0.9762694 5:0.077235011 \n-1 1:0.96539879 2:0.15930263 3:0.30312265 4:-1.0426727 5:0.016659264 \n-1 1:1.121687 2:-0.7191114 3:-0.79242975 4:-1.1478113 5:0.25896225 \n-1 1:-0.45607965 2:-0.47762529 3:-0.54688887 4:0.30199418 5:-0.42554369 \n-1 1:-0.64638978 2:-0.5644892 3:-0.45482791 4:0.56207378 5:-0.38919824 \n-1 1:-0.35188751 2:0.36402153 3:0.13270189 4:0.16918757 5:-0.77082545 \n-1 1:-0.68200648 2:-0.29445575 3:-0.22973751 4:0.61740987 5:1.1554833 \n-1 1:-0.4310948 2:-0.47495939 3:-0.49269169 4:0.26879253 5:0.76174095 \n-1 1:-0.72666025 2:-0.49950789 3:-0.48094784 4:0.68381317 5:-0.207471 \n-1 1:-0.94780274 2:-0.63191425 3:-0.62268392 4:1.0434977 5:-0.32862249 \n-1 1:-1.0094675 2:-0.67168059 3:-0.73769263 4:1.1541699 5:-0.35285279 \n-1 1:-0.94036045 2:-0.64890936 3:-0.67323646 4:1.0324305 5:-0.49823458 \n-1 1:-0.91750197 2:-0.65146418 3:-0.65818544 4:0.99369525 5:-0.09237708 \n-1 1:-0.86859546 2:-0.48162414 3:-0.49019443 4:0.91069113 5:-0.52246488 \n-1 1:-0.82606805 2:-0.49373177 3:-0.51692181 4:0.83875421 5:-0.58909821 \n-0.2710827181171504 1:-0.20569956 2:1.9795569 3:2.0219088 4:-0.0078879001 5:4.8082008 \n-1 1:-0.23972149 2:-0.22114351 3:-0.4100798 4:0.03084736 5:-0.61938608 \n-1 1:-0.78938817 2:0.65027253 3:0.35826474 4:0.78341813 5:1.0525045 \n-1 1:-0.4023888 2:1.0513794 3:0.7883325 4:0.23005727 5:0.0045441148 \n-1 1:-0.33487655 2:0.82455574 3:0.55028338 4:0.14705314 5:-2.7031918 \n-1 1:-0.39282014 2:0.34358296 3:0.3535402 4:0.21899005 5:1.4401893 \n-1 1:0.96061446 2:2.658917 3:1.1202649 4:-1.0426727 5:0.17415621 \n-0.3383141402187623 1:2.0115729 2:2.9548319 3:2.3351456 4:-1.6347688 5:-3.1938553 \n-1 1:2.1816825 2:1.1736776 3:0.48596219 4:-1.7122393 5:-1.0070709 \n-1 1:2.445884 2:-0.4264178 3:-0.59150198 4:-1.8229115 5:-0.28621947 \n-0.7929562228466783 1:2.9482389 2:3.3556056 3:1.8232084 4:-2.0165878 5:2.4094013 \n-0.7622575390503458 1:2.2704585 2:1.6011102 3:1.3163331 4:-1.7509746 5:-1.6734041 \n-0.3638801481760657 1:0.49281303 2:2.7868802 3:1.1228296 4:-0.68852176 5:-3.7632673 \n-1 1:4.0034501 2:4.0410751 3:1.5244827 4:-2.3430707 5:-2.2670464 \n-1 1:3.0040562 2:3.2135353 3:1.9224911 4:-2.0387223 5:-0.53458003 \n-1 1:2.2752428 2:0.60173094 3:0.64848623 4:-1.7565082 5:-0.50429216 \n-1 1:1.9993463 2:2.4807461 3:2.285133 4:-1.6292352 5:-0.99495571 \n-0.5391403271830296 1:1.8281735 2:1.5988886 3:1.3647259 4:-1.5462311 5:1.0101015 \n-1 1:1.8808011 2:-0.1422773 3:-0.06667353 4:-1.5738991 5:-0.10449223 \n-0.792475927755274 1:1.4863595 2:1.6592046 3:1.0817937 4:-1.363622 5:4.5961857 \n-1 1:2.1848721 2:2.358559 3:2.5200774 4:-1.7122393 5:-0.72236485 \n-1 1:1.4044942 2:2.4317602 3:1.9127721 4:-1.3193531 5:0.2226168 \n-1 1:1.5772618 2:2.0116588 3:1.4917484 4:-1.4134245 5:1.1130803 \n-1 1:1.222158 2:1.9042452 3:1.2233948 4:-1.208681 5:1.131253 \n-0.5489463888703073 1:1.4534007 2:2.6123749 3:2.3136827 4:-1.3470212 5:-2.2609888 \n-1 1:2.0817431 2:0.28360021 3:0.37770283 4:-1.6679705 5:0.16809863 \n-1 1:2.1306496 2:0.35735678 3:0.45957229 4:-1.6901049 5:0.13175318 \n-1 1:2.1896564 2:-0.11150837 3:-0.091038637 4:-1.717773 5:-0.2317013 \n-1 1:2.1343708 2:-0.52516718 3:-0.53467257 4:-1.6901049 5:0.040889563 \n-1 1:2.0509107 2:-0.52961034 3:-0.54182686 4:-1.6513697 5:-0.062089207 \n-0.249153356588859 1:1.4294791 2:4.3153295 3:5.1191797 4:-1.335954 5:-2.2973343 \n-0.3727424517254703 1:1.5894884 2:4.9470367 3:5.2945274 4:-1.4244917 5:4.0994646 \n-0.1340679653363427 1:1.9307708 2:5.0327898 3:4.9313456 4:-1.5960336 5:-0.6133285 \n-0.3061168112956026 1:1.7542821 2:5.1455352 3:4.6970086 4:-1.5074958 5:-5.4412155 \n-0.3435264848075113 1:-0.89304871 2:0.011234105 3:-0.090768663 4:0.94942639 5:-1.2978344 \n-1 1:-0.8941119 2:0.25049862 3:0.25749713 4:0.95495999 5:2.0641195 \n-1 1:1.9546925 2:0.034338571 3:-0.09070117 4:-1.6071008 5:-0.15295283 \n-1 1:1.8909014 2:0.09421024 3:-0.081117111 4:-1.5794327 5:-1.0070709 \n-1 1:0.77189911 2:-0.21192393 3:-0.13585424 4:-0.90433249 5:0.61635916 \n-1 1:0.76126726 2:-0.091625201 3:0.042328265 4:-0.89879888 5:0.2226168 \n-1 1:0.76392522 2:0.014011084 3:0.13081207 4:-0.89879888 5:0.56789856 \n-1 1:0.67142812 2:0.012455975 3:0.12878727 4:-0.83239558 5:0.36194102 \n-1 1:0.63581142 2:-0.1295032 3:-0.032994337 4:-0.80472754 5:0.3922289 \n-1 1:0.89682335 2:-0.44963334 3:-0.57847576 4:-0.99840384 5:0.028774414 \n-1 1:1.0919178 2:1.3277444 3:0.077559805 4:-1.1256768 5:-0.44371641 \n-0.2646730137912707 1:1.1115867 2:2.6079317 3:2.600327 4:-1.1422777 5:-0.90409209 \n-1 1:1.5304817 2:0.53097351 3:0.57822563 4:-1.39129 5:1.1191379 \n-1 1:1.6596586 2:-0.50595048 3:-0.62423627 4:-1.4576933 5:-0.086319506 \n-0.1016443463404413 1:-0.99405129 2:2.7017936 3:0.95267886 4:1.1265019 5:4.4629191 \n-1 1:-0.88401164 2:0.68604002 3:0.55635778 4:0.93835917 5:-1.6915768 \n-1 1:-0.74739236 2:0.92952555 3:0.620274 4:0.71701482 5:-2.273104 \n-1 1:-0.68147488 2:0.78989904 3:0.53455742 4:0.61740987 5:0.10752288 \n-1 1:-0.34816636 2:0.88953705 3:0.83051586 4:0.16365397 5:-0.97678299 \n-1 1:-0.99245652 2:0.7735704 3:0.41988618 4:1.1265019 5:1.9974862 \n-0.2510875248389849 1:-1.1529975 2:1.4559297 3:1.536429 4:1.4308503 5:3.481592 \n-1 1:-0.71921795 2:0.80511689 3:0.5816678 4:0.67274596 5:-0.82534362 \n-1 1:-0.6517057 2:0.5480797 3:0.22685514 4:0.573141 5:1.2826924 \n-0.2930241716814025 1:-0.82925761 2:0.48109897 3:0.0029121363 4:0.84428782 5:0.028774414 \n-0.2855962728912291 1:-0.63469474 2:1.1166939 3:1.2510671 4:0.54547296 5:3.8935071 \n-0.232438266705178 1:-1.7568866 2:0.82777704 3:0.74783648 4:2.9470591 5:4.293307 \n-1 1:-0.80639913 2:0.9036441 3:0.7190843 4:0.81108617 5:1.1797136 \n-1 1:-0.95365026 2:0.79611947 3:0.13506416 4:1.0545649 5:5.2867492 \n-1 1:-0.78619861 2:0.79289818 3:0.45667007 4:0.77788452 5:0.40434404 \n-0.2690147160228645 1:-0.79098295 2:1.3341869 3:0.70821787 4:0.78341813 5:8.2186154 \n-1 1:-0.44757417 2:0.41023046 3:0.17569517 4:0.29092696 5:-2.0974343 \n-1 1:-0.67881692 2:0.40823104 3:0.16253396 4:0.61187626 5:1.4947075 \n-0.5184211762609436 1:-1.4879008 2:0.98806427 3:0.56958648 4:2.1834211 5:-4.0419158 \n-1 1:-0.68838559 2:0.88720439 3:0.35718484 4:0.62847709 5:-1.8430162 \n-1 1:-0.69051196 2:1.1649023 3:0.63991457 4:0.62847709 5:1.0222167 \n-1 1:-1.0599688 2:0.58784604 3:0.33815171 4:1.2482412 5:1.6461469 \n-1 1:-1.0551844 2:0.36502124 3:0.041045891 4:1.2427076 5:-1.3765829 \n-1 1:-0.89304871 2:0.64127512 3:0.61035248 4:0.94942639 5:-1.303892 \n-1 1:-0.98129307 2:0.96807002 3:0.91130542 4:1.1043674 5:-2.5032918 \n-1 1:-0.66659029 2:0.69226046 3:0.5704639 4:0.59527544 5:-1.2857193 \n-1 1:-0.79470409 2:0.92408267 3:0.43358734 4:0.78895174 5:1.4462469 \n-1 1:-1.2837692 2:0.59028978 3:0.32566544 4:1.7019972 5:-1.7642677 \n-0.1009124170035966 1:-1.2093463 2:0.96573736 3:0.59617887 4:1.5415225 5:0.97981364 \n-1 1:-1.2986538 2:0.68326304 3:0.39984065 4:1.7351988 5:-3.569425 \n-0.6793234863754941 1:-1.225294 2:1.0458254 3:0.96793236 4:1.5802578 5:-2.273104 \n-0.6974272784878284 1:-1.3273598 2:1.0249426 3:0.98912528 4:1.8016021 5:1.5673984 \n-1 1:-1.0769797 2:0.70658967 3:0.09888771 4:1.2814429 5:0.86471972 \n-0.07392893688593413 1:-1.2497473 2:1.0358283 3:1.1685227 4:1.6300602 5:3.5724556 \n-1 1:-0.76706128 2:1.0641535 3:0.50944989 4:0.74468287 5:-1.3826405 \n-1 1:-0.73888688 2:0.82388926 3:0.11171145 4:0.700414 5:-0.99495571 \n-1 1:-0.83776309 2:0.89109216 3:0.63856471 4:0.86088865 5:-2.6607888 \n-1 1:-0.40610995 2:0.81222595 3:0.60238826 4:0.23559088 5:-1.4674465 \n-0.8271039246271322 1:-0.87869571 2:1.0214991 3:0.91522004 4:0.92729195 5:-2.1216646 \n-1 1:-0.72347069 2:0.82522221 3:0.77429388 4:0.67827956 5:-0.15295283 \n-1 1:-0.69901744 2:1.1955601 3:0.56729171 4:0.6395443 5:0.13781076 \n-0.7468352724666653 1:-1.2013724 2:1.1118065 3:0.6080577 4:1.5249217 5:5.3412674 \n-1 1:-0.65330048 2:0.97851146 3:0.88775023 4:0.573141 5:-0.22564372 \n-1 1:-0.74845554 2:1.0051705 3:0.84489194 4:0.71701482 5:0.49520767 \n-1 1:-1.0163782 2:0.81911286 3:0.50270055 4:1.1707707 5:2.0944074 \n-1 1:-1.1928669 2:0.85799057 3:0.49176662 4:1.5083209 5:1.7975862 \n-0.4420713739489744 1:-0.85477405 2:0.57273928 3:0.35644242 4:0.88855669 5:2.7849709 \n-1 1:-0.70539655 2:0.72358478 3:0.51775157 4:0.65061152 5:-0.34073764 \n-0.5009512846165086 1:-1.1747928 2:0.91397447 3:1.0805113 4:1.4751192 5:2.0580619 \n-1 1:-0.8654059 2:0.94574311 3:0.83949247 4:0.90515752 5:1.1494257 \n-1 1:-0.28437526 2:1.0738174 3:0.89038248 4:0.086183446 5:-3.5815401 \n-1 1:-0.74526599 2:0.26671618 3:0.042800719 4:0.71148122 5:-1.6915768 \n-1 1:-0.71177566 2:0.96662599 3:0.86142782 4:0.66167874 5:-1.9338798 \n-1 1:-0.7941725 2:0.77101558 3:0.76936686 4:0.78895174 5:-1.0979345 \n-1 1:-0.84520538 2:0.90531029 3:0.8473892 4:0.87195587 5:0.61635916 \n-1 1:-0.75005032 2:0.91641821 3:0.70720547 4:0.71701482 5:-0.074204356 \n-0.2812341677079473 1:-0.53316057 2:1.0589328 3:0.80493587 4:0.40159914 5:-0.63150123 \n-1 1:-0.54698197 2:0.80933789 3:0.56209472 4:0.42373357 5:-0.76476787 \n-1 1:-0.35507707 2:0.10998348 3:-0.01963065 4:0.16918757 5:2.6093012 \n-1 1:-0.67190622 2:0.72802795 3:0.39045907 4:0.60080904 5:-1.3947556 \n-1 1:-1.0068095 2:0.85532467 3:0.63647241 4:1.1486363 5:-1.2675466 \n-1 1:-0.95577663 2:0.71214363 3:0.61905912 4:1.0600986 5:-1.3584102 \n-1 1:-1.1545922 2:0.89631288 3:0.63174788 4:1.4308503 5:-2.3276221 \n-1 1:-0.82447328 2:1.2082232 3:0.41860381 4:0.83875421 5:0.095407735 \n-1 1:-0.53156579 2:1.1559049 3:0.60826018 4:0.40159914 5:-2.9818402 \n-1 1:-0.91005967 2:0.70592319 3:0.19391838 4:0.98262804 5:0.60424401 \n-1 1:-0.972256 2:0.90664324 3:0.50405042 4:1.0877666 5:0.2226168 \n-1 1:-0.55601905 2:-0.59670216 3:-0.68133566 4:0.43480079 5:0.18627136 \n-1 1:-1.4762057 2:0.74413443 3:0.17596514 4:2.1557531 5:-2.0671464 \n-0.3762095334000942 1:-2.1704656 2:0.24116797 3:-0.25707233 4:4.5241375 5:-4.3629672 \n-1 1:-0.59429371 2:-0.60825439 3:-0.69976135 4:0.49013687 5:0.10146531 \n-1 1:-0.69529629 2:-0.95859807 3:-0.90311888 4:0.6340107 5:0.16204106 \n-1 1:-0.65436366 2:-0.71011398 3:-0.60128852 4:0.573141 5:0.17415621 \n-1 1:-0.62299971 2:-0.70922535 3:-0.59892626 4:0.52887213 5:0.28319255 \n-1 1:-0.61130467 2:-0.93960353 3:-0.86822481 4:0.51227131 5:0.046947138 \n-1 1:-0.60598874 2:-0.90605763 3:-0.84466962 4:0.5067377 5:0.19232893 \n-1 1:-0.55336108 2:-0.94060325 3:-0.88030612 4:0.42926718 5:-0.025743759 \n-1 1:-0.8159678 2:0.18873861 3:0.1478879 4:0.82215339 5:2.0096013 \n-1 1:-0.73410255 2:-0.16127184 3:-0.61559712 4:0.69488039 5:0.11358046 \n-1 1:-0.5522979 2:-0.93271663 3:-0.85897822 4:0.42926718 5:0.034831988 \n-1 1:-0.55070312 2:-0.9286067 3:-0.85924819 4:0.42926718 5:0.20444408 \n-1 1:-0.57249841 2:-0.91538828 3:-0.840755 4:0.45693522 5:0.022716839 \n-1 1:-0.59376212 2:-0.92893994 3:-0.85796581 4:0.49013687 5:0.23473195 \n-1 1:-0.59588849 2:-0.67412433 3:-0.54182686 4:0.49013687 5:0.27713498 \n-1 1:-0.59588849 2:-0.67368002 3:-0.53784475 4:0.49013687 5:0.14992591 \n-1 1:-0.61396263 2:-0.96504066 3:-0.88773039 